word,dim0,dim1,dim2,dim3,dim4,dim5,dim6,dim7,dim8,dim9,dim10,dim11,dim12,dim13,dim14,dim15,dim16,dim17,dim18,dim19,dim20,dim21,dim22,dim23,dim24,dim25,dim26,dim27,dim28,dim29,dim30,dim31,dim32,dim33,dim34,dim35,dim36,dim37,dim38,dim39,dim40,dim41,dim42,dim43,dim44,dim45,dim46,dim47,dim48,dim49,dim50,dim51,dim52,dim53,dim54,dim55,dim56,dim57,dim58,dim59,dim60,dim61,dim62,dim63,dim64,dim65,dim66,dim67,dim68,dim69,dim70,dim71,dim72,dim73,dim74,dim75,dim76,dim77,dim78,dim79,dim80,dim81,dim82,dim83,dim84,dim85,dim86,dim87,dim88,dim89,dim90,dim91,dim92,dim93,dim94,dim95,dim96,dim97,dim98,dim99,dim100,dim101,dim102,dim103,dim104,dim105,dim106,dim107,dim108,dim109,dim110,dim111,dim112,dim113,dim114,dim115,dim116,dim117,dim118,dim119,dim120,dim121,dim122,dim123,dim124,dim125,dim126,dim127,dim128,dim129,dim130,dim131,dim132,dim133,dim134,dim135,dim136,dim137,dim138,dim139,dim140,dim141,dim142,dim143,dim144,dim145,dim146,dim147,dim148,dim149,dim150,dim151,dim152,dim153,dim154,dim155,dim156,dim157,dim158,dim159,dim160,dim161,dim162,dim163,dim164,dim165,dim166,dim167,dim168,dim169,dim170,dim171,dim172,dim173,dim174,dim175,dim176,dim177,dim178,dim179,dim180,dim181,dim182,dim183,dim184,dim185,dim186,dim187,dim188,dim189,dim190,dim191,dim192,dim193,dim194,dim195,dim196,dim197,dim198,dim199
aucun,-0.012383240275084972,-0.0473981536924839,-0.06389987468719482,0.006310161668807268,0.10298234969377518,-0.16431070864200592,-0.06380277127027512,-0.019124934449791908,-0.09879683703184128,-0.21746903657913208,-0.014340315014123917,-0.06443282216787338,-0.05535106360912323,-0.11193205416202545,-0.06120564788579941,-0.09913767874240875,-0.03329136222600937,-0.012250916101038456,-0.07153783738613129,0.03479339927434921,-0.07609224319458008,-0.07366550713777542,-0.18989205360412598,-0.0369543582201004,0.16103629767894745,5.119850975461304E-4,0.05166664719581604,-0.016779286786913872,-0.10455970466136932,0.10798921436071396,-0.08460879325866699,-0.13489525020122528,-0.04926377534866333,0.00267206528224051,0.02765040472149849,-0.005708918906748295,-0.006094460841268301,-0.05073847994208336,0.114472396671772,0.09448490291833878,-0.06095782667398453,-0.03422902524471283,0.06935454905033112,0.18616518378257751,-0.0016452237032353878,-0.005393954459577799,0.009912831708788872,-0.06637944281101227,0.08634024858474731,0.031232547014951706,0.12075227499008179,0.018616583198308945,0.01794758439064026,0.09277469664812088,0.012942024506628513,-0.015556500293314457,0.12905246019363403,0.002783691044896841,-0.029846690595149994,-0.11059985309839249,-0.06515812873840332,0.056245557963848114,0.12839557230472565,0.05878106877207756,-0.010225408710539341,-0.016975484788417816,-0.005245779640972614,0.07930678129196167,-0.007421150803565979,0.07232876867055893,-0.009656138718128204,-0.02869950421154499,-0.030462300404906273,0.045802827924489975,0.05167698487639427,0.16967140138149261,-0.07306530326604843,0.06149109825491905,0.008003361523151398,-0.024997446686029434,-7.726022740826011E-4,0.04187848046422005,-0.07161818444728851,-0.05910303071141243,0.014372261241078377,0.08120103925466537,-0.06094399839639664,0.029434796422719955,0.07552774995565414,-0.07358717173337936,0.01708688773214817,-0.01166493073105812,-0.06199320778250694,-0.061395663768053055,0.06375252455472946,0.11153692752122879,-0.06714985519647598,0.11022093147039413,0.001175928395241499,0.04884025827050209,-0.0390002578496933,0.026974039152264595,-0.00787399336695671,0.046011243015527725,-0.037608519196510315,0.06240743398666382,0.07942508161067963,0.07847956568002701,0.02623032033443451,-0.003964413423091173,0.08880222588777542,-0.0285296943038702,-0.03594990074634552,0.020462684333324432,0.030848627910017967,0.01953919418156147,-0.03329921513795853,0.0262666717171669,0.03667604550719261,-0.06560525298118591,0.0017783335642889142,0.04437355324625969,0.025487296283245087,-0.036033712327480316,0.03589005395770073,-0.02770908735692501,-0.017379429191350937,0.07942206412553787,-0.059676382690668106,-0.011286449618637562,0.011997786350548267,0.06596299260854721,0.006011828314512968,-0.04703079164028168,-0.06116008013486862,0.014786403626203537,-0.028632352128624916,-0.09129861742258072,-2.4086065241135657E-4,0.04772505164146423,0.048045769333839417,-0.06686494499444962,0.0767669603228569,0.13028323650360107,0.06168524548411369,-0.006027056369930506,-0.07380065321922302,0.10958218574523926,-0.01379435695707798,0.11211935430765152,0.05441199243068695,-0.09232410788536072,0.010868873447179794,0.014134609140455723,-0.06859790533781052,0.019115326926112175,0.008348159492015839,-0.0859723836183548,0.060888566076755524,0.09921597689390182,-0.007470056414604187,0.1457333266735077,-0.012319796718657017,-0.04981909319758415,-0.0036780782975256443,0.011000001803040504,0.0227467380464077,0.03868243843317032,0.06428305804729462,0.12176346778869629,-0.06986937671899796,0.0795830562710762,-0.09548551589250565,0.060392338782548904,0.010610107332468033,0.04450708255171776,-0.025453677400946617,-0.039808113127946854,0.007821813225746155,-0.05589452013373375,-0.1546170562505722,0.10034496337175369,0.13883492350578308,0.15472489595413208,0.011244773864746094,-0.10812219977378845,-0.0010144613916054368,0.006400079932063818,-0.09754029661417007,-0.013340272009372711,-0.126609206199646,-0.1260633021593094,0.10150904208421707,0.06637226045131683,0.050299715250730515,-0.01648568920791149,-0.10618168115615845,0.0417170375585556,-0.05854559689760208,-0.06546248495578766
dinstallation,0.005905685946345329,0.03085574507713318,-0.1005963534116745,-0.09249667823314667,-0.10890903323888779,0.02536335587501526,0.09767606109380722,-0.004832855425775051,-0.038747675716876984,-0.013620237819850445,-0.06846921890974045,-0.056458160281181335,0.043814629316329956,0.03597428277134895,-0.15797822177410126,-0.07377301156520844,0.04292786866426468,0.002130046719685197,-0.06876373291015625,0.009051421657204628,-0.08196216821670532,0.0756961926817894,-0.0234772190451622,-0.11691511422395706,0.04081573337316513,-0.03457803279161453,-1.8208498659078032E-4,-0.00799168273806572,0.12682309746742249,-0.03476041182875633,0.006270490121096373,0.06282621622085571,-0.062212102115154266,0.08549045026302338,-0.0022509689442813396,0.00670598354190588,-0.04043308645486832,-0.005427313968539238,-0.019797084853053093,-0.09570515155792236,0.04515361785888672,0.057440001517534256,0.06071673333644867,-0.0977150946855545,0.17953188717365265,0.007314537186175585,0.0522240586578846,-0.03408343717455864,-0.07813142240047455,-0.1160736232995987,-0.04905795305967331,0.0014434667536988854,0.1001020222902298,-0.006478223018348217,-0.028511708602309227,-0.0025871661491692066,0.00786573812365532,-0.1276225745677948,-0.06504678726196289,0.08460987359285355,-0.015338118188083172,-0.051691822707653046,-0.00876870471984148,-0.06130923703312874,-0.04059239849448204,0.05375708267092705,-0.13283362984657288,-0.09442640841007233,-0.011233740486204624,9.28606023080647E-4,-0.05371677502989769,0.06069333851337433,0.14565034210681915,-0.061064139008522034,-0.05253637209534645,-0.06524708122015,0.021661605685949326,-0.030939234420657158,0.07973970472812653,0.07708640396595001,0.03416641056537628,0.11566264182329178,-0.09198521822690964,0.02878737263381481,-0.023289278149604797,-0.012336093001067638,0.029934775084257126,-0.018915511667728424,-0.09578324854373932,-0.09174332022666931,0.00831136666238308,-0.016011549159884453,-0.08308978378772736,-0.08160355687141418,0.09457674622535706,-0.026738490909337997,0.05318037047982216,0.0740416944026947,-0.030925322324037552,0.08740702271461487,-0.028833117336034775,-0.04187110811471939,-0.1358545571565628,-0.0032190310303121805,-0.086689792573452,-0.04478645324707031,0.03469749540090561,-0.08355437219142914,0.07298942655324936,0.06547264009714127,0.07959003746509552,0.035184070467948914,0.06531178206205368,-0.018081288784742355,0.062127817422151566,-0.05504967272281647,-0.10497431457042694,0.0387892946600914,0.00297646620310843,-0.006263183429837227,0.0792984813451767,-0.009749719873070717,-0.017749017104506493,0.008524229750037193,-0.008015966974198818,0.017181795090436935,-0.14404508471488953,-0.008481654338538647,0.061047229915857315,0.02929779142141342,-0.04143672436475754,0.05349317193031311,0.013199872337281704,-0.06856554001569748,-0.05810023844242096,-0.054454654455184937,0.06125146895647049,-0.09036862850189209,0.09123130142688751,0.06410461664199829,-0.03592199459671974,-0.029711848124861717,0.048802200704813004,-0.0779038816690445,0.03821888938546181,0.010929897427558899,-0.05376053601503372,0.08590589463710785,-0.052553121000528336,0.0770251527428627,0.08876525610685349,-0.020538965240120888,0.13334552943706512,-0.08147699385881424,-0.004996317904442549,0.010686809197068214,-0.10248836874961853,0.08844216912984848,0.07472076267004013,0.12270963191986084,-0.14282982051372528,0.03343675658106804,-0.10257470607757568,-0.07998210191726685,-0.0603264681994915,-0.01672172173857689,-0.05280480161309242,0.16381070017814636,-0.01469661295413971,0.0027217366732656956,-0.1717454344034195,0.07120336592197418,-0.11168205738067627,0.12570804357528687,0.10043264180421829,-0.045704685151576996,-0.07525530457496643,0.05380005016922951,-0.06437338143587112,-0.055589672178030014,-0.050426412373781204,0.014434266835451126,-0.07216471433639526,-0.030225854367017746,0.0072792898863554,-0.05497130751609802,0.12399125099182129,0.01912732794880867,-0.04597495123744011,-0.12975354492664337,-0.13877704739570618,-0.13072893023490906,-0.001797395059838891,0.04416382312774658,-0.07091917097568512,0.09989024698734283,-0.13571983575820923,0.007344110403209925,-0.07620854675769806,-0.05284121260046959
fil,0.015416369773447514,-0.05249441787600517,-0.007965915836393833,0.03803423419594765,0.1723286658525467,-0.0820564404129982,0.0024453180376440287,0.040857378393411636,-0.05852760747075081,-0.07370049506425858,0.021524176001548767,-0.07829069346189499,-0.03352214768528938,0.023262381553649902,-0.16893967986106873,-0.038916248828172684,-0.030901236459612846,-0.026220915839076042,-0.13273830711841583,0.00886380672454834,-0.05360667034983635,0.02827966772019863,-0.09064026176929474,-0.08116360008716583,0.20024804770946503,0.031121330335736275,-0.06124313920736313,-0.013374212197959423,0.011344016529619694,-0.019389135763049126,-0.07275816053152084,0.02168542519211769,-0.01283450610935688,-0.13737128674983978,-0.07687720656394958,0.0026360158808529377,0.022447016090154648,0.052363354712724686,0.01684802584350109,0.061445482075214386,0.013833456672728062,0.02932714857161045,-0.03238829970359802,0.02878260426223278,-0.058785729110240936,-0.014818677678704262,-0.03688548132777214,0.1067841649055481,0.08401603251695633,-0.027047831565141678,0.028608081862330437,-0.08327193558216095,0.033264633268117905,0.07597140222787857,0.039662107825279236,-0.03551754355430603,-0.13820429146289825,-0.009617493487894535,0.1565583348274231,-0.010936575941741467,-0.024341866374015808,0.09401515126228333,0.0696265920996666,-0.018790360540151596,0.012067657895386219,-0.14292198419570923,0.05014968663454056,-0.025182170793414116,-0.12838038802146912,-0.05694684386253357,-0.06096760556101799,-0.0850091427564621,-0.03837016597390175,-0.08632273226976395,-0.041500598192214966,-0.055483151227235794,0.013486804440617561,-0.12500226497650146,-0.10717248171567917,-0.018221145495772362,-0.03459034487605095,-0.06468010693788528,0.03586524724960327,-0.03962857648730278,-0.0693047046661377,0.0811586081981659,0.028695305809378624,0.005940787959843874,0.01322876289486885,0.0326392687857151,0.10765720903873444,0.07149303704500198,0.05846214294433594,0.0708908960223198,0.13591720163822174,-0.030914250761270523,0.12144938111305237,-0.0021117678843438625,0.08210581541061401,0.0859818160533905,-0.007120839785784483,0.0074961925856769085,-0.06217556074261665,0.04150506854057312,0.01582852005958557,-0.09020206332206726,0.05925969406962395,0.029225826263427734,-0.07581591606140137,-0.11118783801794052,-0.15064354240894318,-0.03913459926843643,0.06352616101503372,0.01129212137311697,0.02078639715909958,0.025621481239795685,0.1068679690361023,0.04812535271048546,0.026319267228245735,-0.015299588441848755,-0.13396738469600677,0.11598385870456696,0.048877932131290436,0.1775183528661728,0.09179658442735672,-0.06311830133199692,0.093464694917202,0.0794001966714859,-0.11470171064138412,0.04273305460810661,-0.06299123913049698,0.04755193367600441,0.13639354705810547,0.007400632370263338,-0.07434560358524323,0.035799313336610794,-0.04532238841056824,-0.14748983085155487,-0.026898829266428947,0.20685870945453644,-0.02773854322731495,0.0028353373054414988,-0.044546306133270264,0.08366385102272034,-0.14997336268424988,-0.04171786829829216,0.029532939195632935,-0.012248514220118523,-0.03105866350233555,0.037512555718421936,0.06274779140949249,-0.03145991265773773,-0.007713192142546177,0.0022200264502316713,-0.10059911757707596,-0.017251621931791306,-0.04863136634230614,0.0687282457947731,0.05220296233892441,-0.045435335487127304,0.10032367706298828,0.027514711022377014,-0.010419828817248344,0.02503705583512783,0.04401466250419617,0.012791475281119347,-0.07480199635028839,0.02548447623848915,0.012294553220272064,0.07695659250020981,-0.08499692380428314,4.1090097511187196E-4,-4.7574739437550306E-4,-0.019829045981168747,0.06600985676050186,0.04293958842754364,-0.014949439093470573,-0.07693096995353699,-0.07776007801294327,-0.08413062989711761,0.01374304573982954,-0.050558678805828094,0.1392962783575058,0.11810129880905151,-0.02230996824800968,-0.06337124109268188,-2.67947994871065E-4,0.0668543353676796,-0.09126034379005432,0.006778753362596035,-0.04764396324753761,-0.06275662779808044,0.043732985854148865,0.04626797139644623,0.0785093680024147,-0.018711980432271957,-0.008899054490029812,0.019516130909323692,-0.08751537650823593,0.07305377721786499
partagé,-0.0022028705570846796,-0.07841971516609192,0.014060203917324543,-0.07143522053956985,0.0132386963814497,0.04967154562473297,6.91899040248245E-5,0.022201601415872574,-0.07788961380720139,-0.03687101975083351,0.06309524923563004,0.09063618630170822,-0.04098249971866608,-0.06692662090063095,-0.023586053401231766,-0.06567242741584778,0.044480446726083755,0.15628479421138763,0.17473219335079193,0.08388090878725052,3.5860089701600373E-4,-0.19056783616542816,0.09538083523511887,-0.0021088742651045322,0.0172572061419487,3.303838020656258E-4,-0.11074140667915344,-0.012592444196343422,-0.060959506779909134,0.05494435131549835,-0.06860002875328064,0.017897333949804306,0.09640584141016006,0.0600908100605011,-0.11477672308683395,-0.0056160613894462585,0.07863014191389084,-0.07337088137865067,-0.12443771213293076,-0.02933659963309765,-0.01601799950003624,-0.09285003691911697,-0.08265101909637451,0.044274382293224335,-0.024424992501735687,-0.08405371755361557,0.0101830018684268,-0.04027501493692398,0.07661565393209457,0.030988367274403572,0.0885908305644989,0.05035826191306114,0.19887077808380127,0.11814789474010468,-0.006011756137013435,-0.08362827450037003,0.09859311580657959,-0.08266104012727737,0.08005701750516891,0.029765792191028595,0.05055819824337959,0.1287558227777481,-0.043404944241046906,-0.03615453839302063,0.004446797072887421,-0.01293240673840046,0.018946927040815353,0.06942392885684967,0.0040715597569942474,0.1258118748664856,-0.09201741963624954,0.09570366889238358,0.03652631491422653,0.1523885726928711,0.2027134895324707,0.031379640102386475,-0.13537801802158356,0.11757206171751022,0.020674318075180054,0.1687956601381302,-0.09971945732831955,-0.03010553866624832,0.01363799162209034,0.07606463879346848,0.09278776496648788,0.02700275555253029,0.04625621438026428,0.04098692536354065,-0.05101750046014786,-0.10214364528656006,0.028254738077521324,-0.04427162557840347,0.016013408079743385,-0.03661831095814705,-0.08540850877761841,-0.005238299258053303,-0.12235039472579956,0.02105584368109703,0.01907697506248951,-0.03672781586647034,-0.07307366281747818,0.08854454010725021,-0.09500531852245331,-9.693177416920662E-4,0.029209956526756287,0.024304723367094994,0.18143101036548615,0.07679911702871323,0.07639984041452408,0.07169710844755173,0.036127425730228424,0.05486707016825676,-0.04049412161111832,0.004909901414066553,0.012267256155610085,0.1374383568763733,-0.03548093140125275,0.030818816274404526,0.0526866652071476,0.07930830121040344,0.03505498543381691,-0.09998128563165665,0.01266931090503931,-0.020389720797538757,-0.04825851693749428,-0.05103074386715889,-0.1144874319434166,0.028149155899882317,-0.025174012407660484,0.03372364491224289,0.07872937619686127,0.02703803963959217,-0.069737009704113,0.013478843495249748,0.028851835057139397,-0.05943998321890831,0.017890457063913345,-0.0042105792090296745,-0.001672397367656231,0.03333071619272232,-0.01703411154448986,0.02070336602628231,-0.040771614760160446,-0.13491420447826385,0.15100377798080444,0.019771119579672813,-0.0014273878186941147,0.013943752273917198,-0.011237556114792824,0.03715301677584648,-0.0038749296218156815,0.12323452532291412,-0.06879270821809769,0.03370177000761032,-0.04018278792500496,-0.0495062880218029,-0.0326140932738781,-0.032447826117277145,-0.05863894149661064,-0.005639330483973026,-0.01386677473783493,0.06176707148551941,0.03670317679643631,-0.007883192971348763,0.01755054108798504,9.596623131074011E-4,0.008622948080301285,-0.011161040514707565,0.008921177126467228,0.08595087379217148,0.023098114877939224,0.06562706083059311,0.021912040188908577,-0.0395502932369709,-0.05805201828479767,0.007330157328397036,0.010914615355432034,0.06860637664794922,-0.051659367978572845,-0.1059986799955368,-0.1586616188287735,0.09971873462200165,-0.00539345433935523,0.006333840545266867,0.05208399146795273,-0.14393049478530884,0.02648603357374668,0.030305813997983932,0.06356866657733917,-0.03252548724412918,-0.13543646037578583,-0.0632634311914444,0.00822181161493063,0.04489417001605034,0.014110242016613483,-0.04685237631201744,0.03230133280158043,0.07401223480701447,8.331375429406762E-4,-0.016693362966179848
avoir,0.017461761832237244,-0.08087553083896637,-0.05491133779287338,-0.055944573134183884,-0.0760096088051796,0.045644596219062805,0.033285271376371384,-0.03478175029158592,0.03766477480530739,0.03613647446036339,0.057880550622940063,-0.003634021617472172,0.13392826914787292,-0.03334175795316696,-0.08362952619791031,0.06406266987323761,0.08839084953069687,0.005475192330777645,0.05215318500995636,-0.09740093350410461,0.003937479108572006,0.021897993981838226,0.03755088150501251,-0.048814255744218826,-0.012262381613254547,0.023793458938598633,-0.013669348321855068,-0.05939448997378349,0.20811349153518677,-0.07618855684995651,0.015985548496246338,0.09722524881362915,-0.0012215508613735437,-0.038547441363334656,0.03910854458808899,-0.022133132442831993,-0.10160808265209198,-0.01946195214986801,0.11039695888757706,0.05166829749941826,0.09218587726354599,-0.10029071569442749,-0.07468730211257935,-0.016589434817433357,0.05244658142328262,0.03607593849301338,0.10633625090122223,-0.02733301743865013,-0.05545356124639511,0.014159215614199638,0.008042071014642715,0.09546340256929398,0.20105837285518646,-0.010297717526555061,-0.1037706658244133,0.12748023867607117,0.06038743257522583,0.08446970582008362,-0.0195345226675272,-0.02972765825688839,-0.04101966693997383,0.06196308881044388,0.035013794898986816,-0.030462631955742836,0.014667919836938381,0.1576932668685913,-0.06775372475385666,0.0025047468952834606,0.026018856093287468,-0.0529404915869236,0.05341766029596329,-0.09371527284383774,0.04800328612327576,0.052097879350185394,0.05593151971697807,-0.010810812003910542,-0.07753057032823563,-0.03125360980629921,0.13572002947330475,0.08388201892375946,-0.1022767424583435,-0.008660342544317245,-0.10463319718837738,-0.02811172604560852,0.031031593680381775,-0.0503225177526474,-0.04767987132072449,0.009084935300052166,0.006087948568165302,-0.024968117475509644,0.03450321778655052,0.07551338523626328,-0.013225700706243515,-0.08049920201301575,-0.07258085906505585,-0.05166209489107132,-0.07170487195253372,0.12198775261640549,-0.07972977310419083,-0.06227174773812294,-0.009481099434196949,0.06928632408380508,0.09436924755573273,-0.061270661652088165,0.047684863209724426,-0.008964435197412968,-0.0013188576558604836,-0.03562381491065025,-0.08167135715484619,9.078505681827664E-4,-0.019098056480288506,0.027164142578840256,-0.03204978629946709,0.15002349019050598,0.009859814308583736,-0.06460876017808914,-0.06968972831964493,0.031052421778440475,-0.016357161104679108,-0.039839550852775574,0.03012201003730297,-0.12383942306041718,0.07399701327085495,0.11462103575468063,0.10343525558710098,-0.150665283203125,-0.013466007076203823,0.051272325217723846,0.010901994071900845,0.03539661690592766,0.003703524125739932,0.12347722053527832,0.040970172733068466,-0.057149846106767654,-0.07419699430465698,5.843841354362667E-4,-0.06855091452598572,-0.024960463866591454,0.027702493593096733,0.021881794556975365,-0.014746252447366714,0.061016764491796494,-0.05895113945007324,-0.04411129653453827,0.01285529788583517,0.0881449356675148,-0.12156101316213608,0.04224127158522606,-0.013877407647669315,0.08975040912628174,0.06382094323635101,-0.116103895008564,-0.0032361734192818403,-0.11666285246610641,0.005310392472893,0.05784505605697632,-0.022470617666840553,0.09663329273462296,-0.05554405599832535,0.04799516871571541,-0.07862042635679245,0.10234273970127106,-0.06503716111183167,0.022223103791475296,0.14483247697353363,-0.0387590155005455,-0.07660112529993057,0.09222446382045746,0.151896134018898,0.08783005177974701,-0.020635535940527916,-0.007645278237760067,-0.11971138417720795,-0.0056579140946269035,0.10331060737371445,0.0029474287293851376,0.05354968085885048,0.023269088938832283,0.08524299412965775,-0.04589623585343361,0.04719371721148491,0.03544054925441742,0.1072961613535881,0.05172743275761604,-0.02875955030322075,-0.11324664205312729,0.015935195609927177,0.02239850163459778,-0.06279382109642029,-0.11314603686332703,-0.07056348025798798,-0.04835246503353119,0.03260376676917076,-0.08857754617929459,-0.11554300040006638,0.16025535762310028,-0.10590647906064987,-0.017321811988949776,-0.09583082050085068,-0.0672350749373436
réinitialisation,-0.03457476198673248,-0.03933471068739891,-0.05431484431028366,-0.07267951965332031,-0.05983612313866615,-0.08515595644712448,-0.04560716450214386,-0.09886928647756577,-0.08419377356767654,-0.07468534260988235,0.02235753834247589,0.04470163211226463,-0.02568322792649269,-0.04975220933556557,0.16770827770233154,-0.028845975175499916,0.10950612276792526,0.07461033016443253,0.08156418800354004,0.06686301529407501,-0.06824539601802826,-0.08458667248487473,-0.013639948330819607,-0.03216824308037758,0.08341360092163086,-0.04392708092927933,-0.01919253170490265,-0.14751455187797546,0.0612221397459507,0.08260919898748398,-0.09573694318532944,-0.058739613741636276,-2.518314868211746E-4,0.016326619312167168,0.02654559724032879,-0.11665720492601395,0.049132950603961945,0.01420606765896082,0.019733604043722153,0.05713174119591713,-0.0019496763125061989,-0.10383640974760056,-0.00771936634555459,0.06913730502128601,0.07352497428655624,-0.04492901638150215,-0.0450330413877964,-0.0811060220003128,0.16208507120609283,0.1287073791027069,0.13575835525989532,0.04315568506717682,0.017474977299571037,0.021116051822900772,-0.08962265402078629,0.021313123404979706,0.051537495106458664,0.03422273322939873,0.04258989542722702,-0.017964225262403488,-0.11093983054161072,0.09415354579687119,0.034731362015008926,0.008557244203984737,-0.036630865186452866,-0.03809424862265587,-0.002967384411022067,0.010637577623128891,-0.0529257133603096,-0.003176802070811391,-0.08171572536230087,0.019173651933670044,-0.06646975874900818,0.05480905994772911,0.014609314501285553,0.028188804164528847,-0.14997003972530365,-0.06872204691171646,-0.022671300917863846,0.02388046681880951,-0.02347411960363388,-0.05122643709182739,-0.0034098958130925894,-0.10186492651700974,-0.00320498482324183,0.11285314708948135,-0.11455079168081284,0.08634086698293686,-0.08101939409971237,-0.13985329866409302,-0.09591521322727203,0.04737510532140732,-0.0013450311962515116,-0.01066166814416647,-0.020109588280320168,0.07122386246919632,-0.03667546808719635,0.15403792262077332,-0.022207999601960182,0.06503693014383316,-0.03951485827565193,0.03001105599105358,-0.0946320965886116,0.06411546468734741,0.017336640506982803,0.12440197169780731,0.034580133855342865,0.16447290778160095,-0.013751466758549213,0.059472497552633286,0.11707963049411774,0.034717489033937454,0.03105272352695465,0.014711442403495312,-0.002659010700881481,0.0913514792919159,-0.029111342504620552,0.0725472941994667,0.0010366587666794658,-0.05803821608424187,-0.011854961514472961,-0.03388537839055061,0.020096976310014725,-0.03714703768491745,0.09527481347322464,-0.15146780014038086,-0.08422638475894928,0.08580697327852249,-0.013090945780277252,0.027057379484176636,0.03609184920787811,0.14258845150470734,-0.028945496305823326,-0.05095922201871872,-0.04242841526865959,0.031087370589375496,0.026346774771809578,-0.12007367610931396,0.079154372215271,0.13388346135616302,-0.03442664444446564,-0.0995691567659378,0.05496973171830177,0.16390357911586761,0.02215082012116909,0.045664284378290176,-0.13622315227985382,0.06215626373887062,-0.03129808232188225,0.019872289150953293,0.09275978803634644,-0.021059459075331688,-0.09608595818281174,-0.07831256836652756,-0.07346294075250626,0.08406771719455719,-0.019587060436606407,0.03521748632192612,0.004997279495000839,0.10345231741666794,-0.005044889636337757,0.11366989463567734,-0.013734381645917892,0.05004989728331566,0.05212024599313736,0.056200843304395676,0.01674013026058674,0.015838205814361572,0.08373378962278366,0.12805534899234772,0.04490067809820175,0.028318354859948158,-0.1269495040178299,0.015920130535960197,-0.015980791300535202,-0.023925449699163437,-0.01865607313811779,0.011923901736736298,0.09555713087320328,0.06201781705021858,-0.005405309610068798,0.11580140143632889,0.06203877553343773,0.06981164216995239,0.019990667700767517,-0.11123916506767273,0.08491647243499756,0.027226299047470093,-0.05418138951063156,-0.03752397745847702,-0.08149594813585281,-0.016248784959316254,0.12581020593643188,0.06606277078390121,0.04484015330672264,0.058524493128061295,-0.0616946779191494,0.06682644039392471,-0.041649941354990005,-0.021016892045736313
via,0.05476008355617523,-0.018490534275770187,-0.10874716192483902,-0.1614050418138504,0.16882959008216858,-0.028774674981832504,-0.10808266699314117,-0.008089989423751831,-0.014280950650572777,-0.02246331423521042,-0.030082089826464653,0.01787186786532402,-0.13530176877975464,0.09385883808135986,-0.036341696977615356,-0.03109995275735855,-0.030748015269637108,-0.20751085877418518,-0.08000380545854568,0.027751659974455833,-0.06919156014919281,-0.031237535178661346,-0.03282893821597099,-0.03626994043588638,0.12167245149612427,0.0339215062558651,-0.05406522750854492,-0.11389017850160599,-0.09594088047742844,0.0979703813791275,-0.1266104131937027,0.09197146445512772,0.027740098536014557,-0.06937612593173981,-0.0930507481098175,-0.024101775139570236,0.04797159507870674,0.036675672978162766,-0.026764368638396263,-0.07059412449598312,0.00250578043051064,-0.07228704541921616,0.03252040967345238,0.09432314336299896,-0.09790679812431335,-0.01092988159507513,-0.0016939175548031926,0.09522771090269089,0.04759514704346657,-0.05497529357671738,-0.1441429704427719,-0.039858363568782806,-0.028608927503228188,-0.03762587532401085,0.0893423855304718,-0.021490508690476418,-0.08746102452278137,-0.012729782611131668,0.16456307470798492,0.022703494876623154,0.0310305617749691,0.06300269067287445,-0.06113415211439133,-0.017077142372727394,0.0370851568877697,-0.064606674015522,0.10396867990493774,0.031972430646419525,-0.03447989746928215,0.08735529333353043,0.08111033588647842,-0.062439437955617905,-0.07961224019527435,-0.04865026846528053,0.09496809542179108,-0.0021565761417150497,-0.014908815734088421,0.008569504134356976,-0.08274608105421066,-0.058883894234895706,0.028831493109464645,0.13099563121795654,-0.021076064556837082,-0.013347391970455647,0.17887239158153534,-0.027502698823809624,0.025169802829623222,0.024966638535261154,0.08692155033349991,-0.052423588931560516,0.09429918229579926,0.019729133695364,-0.13062088191509247,-0.08856679499149323,0.11280190199613571,0.01553326565772295,0.010800858959555626,0.021947801113128662,-0.026041533797979355,-0.02410314790904522,0.03759952634572983,-0.09746330976486206,0.013484063558280468,-0.1438635140657425,0.012844742275774479,-0.027848554775118828,0.08520520478487015,0.04791876673698425,-0.14553368091583252,-0.1748075634241104,-0.1302802562713623,-0.08472517877817154,-0.08606825768947601,-0.041116997599601746,4.373817064333707E-4,0.09022294729948044,0.028181059285998344,0.025553619489073753,-0.038853224366903305,0.0019528965931385756,-0.11737805604934692,0.027592448517680168,-0.004365131258964539,-0.006609697826206684,0.07347037643194199,-0.04136523976922035,0.03449109196662903,-0.027865789830684662,0.010357420891523361,0.0036239796318113804,-0.0059392619878053665,0.01188678853213787,-0.052290789783000946,0.07322751730680466,-0.03245170786976814,0.01540054939687252,-0.08052242547273636,-0.004966529551893473,-0.14862827956676483,0.04066622257232666,-0.08387904614210129,0.02040206827223301,-0.03268507495522499,0.08283241838216782,-0.0653860941529274,-0.02495378442108631,-0.00900237075984478,0.014881257899105549,-0.039181552827358246,0.0064416443929076195,0.05078008025884628,0.09220651537179947,-0.13994908332824707,0.09519657492637634,-0.16434340178966522,-0.0675613209605217,-0.050706543028354645,0.06769658625125885,-0.023987190797924995,0.08592312783002853,0.08850836753845215,-0.03701143339276314,0.04864434897899628,-6.078418809920549E-4,0.027519190683960915,0.043908167630434036,-0.036863602697849274,-0.007386644836515188,-0.013083080761134624,0.07408667355775833,0.050613392144441605,-0.0712229534983635,-0.01379893347620964,-0.06024209037423134,-0.07910523563623428,0.01644510217010975,0.006604756228625774,-0.03274865821003914,0.07956542819738388,-0.019432438537478447,0.00479312427341938,-0.09009363502264023,0.07518863677978516,0.014889142476022243,-0.08090190589427948,-0.027158163487911224,-0.04905540868639946,-0.09016035497188568,-0.0045394133776426315,0.0853891596198082,0.02163124270737171,0.05792684108018875,-0.13847686350345612,0.028406554833054543,0.026670997962355614,0.0069536566734313965,0.01919221691787243,-0.0021812468767166138,0.09569641202688217,0.056287024170160294
certains,0.022180646657943726,-0.06363832950592041,-0.04455628991127014,-0.11348018795251846,-0.11051135510206223,0.06499557197093964,0.05543918535113335,-0.0583915151655674,0.024680200964212418,0.05027033016085625,0.01966184936463833,0.058865319937467575,0.19810450077056885,-0.008610471151769161,0.0035851600114256144,-0.0804666206240654,0.0037557044997811317,0.09858544170856476,0.09249628335237503,0.007574061863124371,0.02963738515973091,-0.005283222068101168,-0.08558183908462524,9.225699468515813E-4,-0.018439240753650665,-0.024174146354198456,-0.025521893054246902,-0.006468615494668484,-0.01824512518942356,0.025569206103682518,0.08170240372419357,-0.019708145409822464,-0.05753618851304054,-0.0013913704315200448,0.07327225804328918,0.04734214022755623,-0.021868905052542686,0.02570754662156105,-0.00824648980051279,0.022750534117221832,0.05507078766822815,-0.06561987102031708,0.07656960934400558,-0.06016752868890762,0.027552494779229164,0.10394397377967834,0.146906316280365,-0.09275919198989868,-0.0037868337240070105,-0.022531460970640182,-0.08304890990257263,-0.0021740752272307873,0.12581858038902283,0.09176960587501526,-0.030943067744374275,0.13558247685432434,0.09870069473981857,-0.026580778881907463,-0.04600970074534416,0.017600703984498978,0.13656072318553925,0.13073115050792694,0.17788507044315338,-0.002336621517315507,-0.02898220345377922,0.06828484684228897,0.10466186702251434,0.05627213418483734,0.1665298193693161,0.06780720502138138,0.07274867594242096,0.08957736194133759,0.060528166592121124,0.09561532735824585,0.10223796218633652,-0.03681144863367081,0.03567060828208923,0.11264918744564056,0.12658634781837463,0.043429289013147354,0.018387284129858017,0.17600476741790771,-0.028047066181898117,-0.05106285214424133,0.08430323749780655,-0.13266122341156006,0.003654966363683343,-0.18966490030288696,-0.10212714970111847,-0.05273595452308655,0.08690176904201508,0.04544578120112419,0.03619353845715523,-0.12750205397605896,-0.008909471333026886,0.06986840069293976,0.043975431472063065,0.08644885569810867,-0.022229831665754318,-0.040212031453847885,0.04206275939941406,0.03661588206887245,0.012667253613471985,0.06613817065954208,-0.032173119485378265,-0.07773147523403168,-0.028700128197669983,-0.0716824159026146,-0.0439915731549263,0.14532139897346497,0.01068800501525402,-0.023870697245001793,0.088681660592556,-2.4404995201621205E-4,0.06331315636634827,-0.06820075213909149,-0.03954610973596573,-0.03698646277189255,-0.038163937628269196,-0.019065435975790024,0.13862282037734985,-0.15485896170139313,0.05509118363261223,0.05291517451405525,-0.06160935014486313,-0.010054921731352806,-0.045451242476701736,-0.04276551678776741,-0.052189938724040985,-0.039260558784008026,0.051557980477809906,0.0957450419664383,0.01779157482087612,0.03948170691728592,-0.06615963578224182,-0.023373693227767944,0.0781799852848053,-0.07497917860746384,0.05065888538956642,0.008792690001428127,0.05089874193072319,-0.006794725079089403,-0.09439803659915924,0.002030337927863002,-0.009599980898201466,0.03615156188607216,0.026337629184126854,-0.009875033050775528,0.05687149614095688,-0.010796153917908669,0.06544514000415802,0.014731071889400482,0.07454986125230789,0.055582355707883835,0.006903086323291063,0.03952137380838394,-0.01992386020720005,-0.0128050921484828,0.10240091383457184,0.05649401992559433,-0.13834096491336823,0.027958402410149574,-0.10222796350717545,-0.050731852650642395,-0.03916528448462486,-0.09251713752746582,-0.03788105770945549,0.0024077361449599266,0.029935048893094063,0.026969319209456444,-0.08810362964868546,0.12363368272781372,-0.009511000476777554,-0.03114674612879753,0.09663466364145279,0.015924550592899323,0.1372831165790558,0.005259934812784195,-0.03783435374498367,-0.002927185036242008,-0.01653994992375374,0.08539184927940369,0.045518744736909866,0.06614550948143005,-0.05472870171070099,0.056101202964782715,0.006714325398206711,0.03291446343064308,-0.1368674486875534,-0.09485260397195816,-0.06403798609972,0.007849566638469696,0.14710478484630585,-0.062084950506687164,0.024287424981594086,-0.004200176801532507,0.002868241397663951,-0.05984313413500786,-0.05496206879615784,-0.014942212961614132
déconnecte,0.04682163894176483,-0.056190602481365204,0.002492236904799938,0.08021678030490875,0.11106941103935242,-0.061685286462306976,-0.09185650199651718,-0.06071656942367554,-0.04076741635799408,-0.042364683002233505,0.01589796133339405,-0.040479134768247604,0.010676795616745949,0.02045946940779686,0.029672954231500626,-0.052236802875995636,0.05106320232152939,0.016794731840491295,-0.21867549419403076,-0.07459810376167297,-0.01369420625269413,0.12558037042617798,-0.11210592091083527,-0.11884511262178421,0.11447957158088684,0.048247262835502625,-0.04135948047041893,-0.0018919522408396006,0.06430984288454056,0.04221199452877045,-0.023332666605710983,0.05552423745393753,0.07141765207052231,-0.08031690865755081,9.88365733064711E-4,-0.04992881789803505,-0.02303300052881241,-0.016111478209495544,-0.003730724798515439,0.054531872272491455,-0.02453538402915001,-0.017110781744122505,0.026572467759251595,-0.010055183432996273,0.028621496632695198,0.014811592176556587,0.00737860007211566,-0.13591217994689941,-0.1320309340953827,-0.17558708786964417,-0.04591551423072815,0.02529291808605194,-0.04625504091382027,-0.11984069645404816,-0.020488997921347618,0.0051645212806761265,-0.03610694408416748,-0.07857970893383026,0.05336129665374756,-0.07162265479564667,0.00949852354824543,0.003124584211036563,-0.01835377886891365,-0.13380739092826843,0.03240327909588814,0.02662726677954197,0.032533902674913406,-0.030474988743662834,-0.06313773989677429,-0.02703479677438736,0.06732932478189468,-0.056823745369911194,-0.049587808549404144,0.04532628878951073,0.019717123359441757,-0.04774853587150574,-0.0019190004095435143,-0.054619308561086655,0.044572941958904266,-0.04703278839588165,0.08572179079055786,-0.12360543757677078,0.012597843073308468,-0.07709088921546936,0.0697338655591011,-0.046785056591033936,0.046082016080617905,0.1478264480829239,0.023189367726445198,-0.01765434816479683,0.07151521742343903,0.0400390587747097,-0.022313090041279793,-0.016042059287428856,0.01251005195081234,0.05523483827710152,0.06094599887728691,0.0941375270485878,-0.12945613265037537,0.03712381795048714,-0.03478888049721718,-0.03197387233376503,0.013546823523938656,-0.14192256331443787,-0.02649388089776039,-0.02327602356672287,0.013092286884784698,0.02114104852080345,-0.031488221138715744,-0.1179816871881485,-0.07650980353355408,-0.019702188670635223,0.07918805629014969,0.13410155475139618,-0.016002535820007324,-0.06676552444696426,0.0621505044400692,0.022790396586060524,0.022287575528025627,-0.00162519421428442,-0.08699090033769608,0.07867112010717392,-0.07058455795049667,0.04916400834918022,0.11567194759845734,0.03248990699648857,-0.06497766077518463,0.003858180483803153,-0.19297371804714203,-0.01849687471985817,-0.009149243123829365,0.09656517207622528,-0.013810547068715096,-0.029470203444361687,-0.1446242481470108,-0.03141022101044655,0.03331073001027107,0.02969103492796421,0.07574664801359177,0.09474975615739822,-0.08582166582345963,-0.04581670090556145,-0.04743250831961632,0.14284439384937286,-0.18144743144512177,0.036029353737831116,0.02170882746577263,0.07584825903177261,0.0281580351293087,0.00925313588231802,-0.07151675969362259,-0.021471774205565453,-0.027255835011601448,0.012502067722380161,-0.06424600630998611,0.020463325083255768,-0.04873178154230118,0.040706828236579895,0.11151177436113358,0.2076215296983719,-0.14644072949886322,0.03385986015200615,-0.08217174559831619,0.011122120544314384,0.0058935461565852165,0.06841926276683807,-0.10725032538175583,0.05588952451944351,-0.0055648572742938995,0.07130009680986404,-0.019690165296196938,-0.027678869664669037,-0.1394718438386917,-0.005262958817183971,0.07381588220596313,-0.037149012088775635,0.13566352427005768,-0.050401926040649414,0.08328452706336975,-0.05153417959809303,0.04483296349644661,-0.03029005415737629,0.07512267678976059,0.09351859241724014,-0.08536473661661148,-0.08008404821157455,0.08877184242010117,0.04353085160255432,-0.0720517486333847,-0.08191175013780594,0.019110247492790222,0.034836675971746445,0.0429425947368145,-0.0467333123087883,-0.012394647113978863,0.008823978714644909,0.06296540796756744,-0.08633311092853546,-0.1298748105764389,0.052081409841775894
scanner,0.037326131016016006,-0.006539389956742525,-0.045325808227062225,-0.09685257077217102,-0.046092573553323746,0.002314831828698516,0.050005458295345306,-0.0073988176882267,0.006009130738675594,0.10188782960176468,-0.030372805893421173,4.729105421574786E-5,0.10478359460830688,-0.007947505451738834,-0.019534382969141006,-0.08281080424785614,0.01056258101016283,0.1968473494052887,0.18272016942501068,-0.03292706608772278,0.0027625830844044685,0.12235279381275177,0.05345011502504349,-0.006039271131157875,-0.06827770173549652,0.030876675620675087,-0.06446012109518051,-0.013630317524075508,-0.008396673947572708,0.010336351580917835,0.0944928303360939,-0.07932349294424057,0.021059775725007057,0.11203456670045853,-0.020568519830703735,0.0666114017367363,-0.04066890478134155,-0.02483927458524704,-0.01337098702788353,0.04115598276257515,0.019329456612467766,-0.05451486259698868,0.042330898344516754,-0.016584739089012146,0.11550933122634888,0.04443270340561867,0.13582345843315125,-0.07686464488506317,0.06480005383491516,-0.06392780691385269,-0.09639483690261841,0.10826186835765839,0.09627344459295273,0.06874487549066544,-0.011839183047413826,0.05503888428211212,0.13182836771011353,-0.08536259829998016,-0.07692666351795197,-0.012049931101500988,0.03661973774433136,0.01640813797712326,0.03615482151508331,-0.005164526402950287,-0.02440241351723671,0.052949219942092896,0.031256888061761856,0.020507019013166428,0.09590790420770645,0.07190700620412827,0.0521417073905468,0.1286068856716156,0.08056224882602692,0.13357293605804443,0.04203309491276741,0.039502017199993134,-0.05491707846522331,0.02434644289314747,0.13779908418655396,0.17094598710536957,-0.02805403433740139,0.2340616136789322,-0.08891671150922775,-0.02161579765379429,0.07299356907606125,-0.06372913718223572,-0.0024323523975908756,-0.09174606204032898,-0.0848168358206749,-0.13509675860404968,0.03406324237585068,0.03925122320652008,-0.029404807835817337,-0.20149827003479004,0.013335217721760273,0.05853091552853584,-2.66613089479506E-4,0.03631042316555977,-0.008968085050582886,0.003480092156678438,0.030254218727350235,0.07039466500282288,0.013660133816301823,0.023945115506649017,-0.04334712401032448,-0.08103649318218231,0.06796596944332123,-0.043379005044698715,0.01003330945968628,0.011665740050375462,0.012650040909647942,-0.012552565895020962,0.015349390916526318,-0.007363967597484589,-0.006435880903154612,-0.00904301181435585,-0.05192730575799942,0.017515292391180992,0.02598407119512558,-0.005000578239560127,0.14911052584648132,-0.1748616099357605,0.027794083580374718,-0.013039802201092243,-0.08337618410587311,-0.0189575906842947,-0.09338527172803879,0.05859167128801346,-0.03279047831892967,-0.05268680676817894,-0.041797276586294174,0.014843820594251156,-0.0013189180754125118,-0.06322003901004791,-0.03017905168235302,-0.0589798279106617,0.028669370338320732,-0.021721767261624336,0.14170745015144348,0.039587315171957016,-0.04532649368047714,0.05474269017577171,-0.04646780341863632,-0.08744989335536957,0.08243363350629807,-0.030488494783639908,-0.0077095334418118,0.002288458403199911,-0.011424931697547436,0.08323034644126892,0.08639884740114212,-0.07473070919513702,0.06863097846508026,0.03609069809317589,0.046721287071704865,-0.01499437540769577,-0.01709762029349804,-8.002949180081487E-4,0.10722314566373825,0.0862455889582634,-0.17230404913425446,0.022210311144590378,-0.053373582661151886,-0.03225315734744072,-0.0763043612241745,-0.03418499976396561,-0.06684276461601257,0.1396537572145462,0.030962230637669563,0.04870335012674332,-0.1796358972787857,0.08486834168434143,-0.028692742809653282,0.0870177373290062,0.10261738300323486,-0.025308558717370033,0.10662688314914703,0.0031754886731505394,-0.03336646780371666,-0.04691323637962341,0.02311762049794197,0.07884159684181213,0.023794401437044144,-0.0439416877925396,0.0345388799905777,0.032787684351205826,0.0042269667610526085,0.059339359402656555,-0.06220020726323128,-0.11922729015350342,-0.04799628257751465,-0.07633998990058899,0.08380590379238129,-0.06834431737661362,-0.04369332641363144,-0.0383208766579628,-0.05564558878540993,-0.015715299174189568,-0.06864123791456223,-0.03532705083489418
favoris,0.022428415715694427,0.024418776854872704,-0.09177471697330475,-0.09120474010705948,-0.013844523578882217,0.06030454486608505,0.04360838979482651,0.011047286912798882,-0.026596833020448685,0.05450773611664772,-0.07491444796323776,-0.06314269453287125,0.04924125224351883,0.056218892335891724,-0.1762697547674179,-0.08951723575592041,0.033238735049963,0.11463851481676102,-0.05235164985060692,-0.0359320230782032,-0.0275129284709692,0.17138829827308655,-0.01463361456990242,-0.13770925998687744,0.018423158675432205,0.00697717722505331,-0.08062949031591415,0.05169370770454407,0.05408909171819687,-0.043963462114334106,0.05635335296392441,0.0026120340917259455,0.007851178757846355,0.07108139246702194,0.061842966824769974,0.07039887458086014,-0.07995083928108215,0.021594977006316185,0.0031765582971274853,-0.01450430229306221,0.028462447226047516,4.5555768883787096E-4,0.06213076412677765,-0.03773603215813637,0.1733020693063736,0.0737200379371643,0.1111191064119339,-0.06552720814943314,-0.03799542412161827,-0.12856611609458923,-0.11025667190551758,0.036457475274801254,0.051814161241054535,-0.009947572834789753,0.020696939900517464,0.005559771321713924,0.03795289993286133,-0.12320312857627869,-0.08637689799070358,0.024384481832385063,0.04081488028168678,-0.0326993465423584,0.02166115865111351,-0.029521124437451363,-0.017072008922696114,-0.005555413663387299,-0.05536765605211258,-0.045774396508932114,0.06326685845851898,0.06618405133485794,0.00554114393889904,0.06989923864603043,0.08962494879961014,0.03551321104168892,-0.015405818819999695,-0.036679450422525406,0.02647724747657776,-0.007626775652170181,0.09987165033817291,0.09188739210367203,0.01101037859916687,0.17812320590019226,-0.09770690649747849,-0.014083486050367355,0.018862493336200714,-0.055967628955841064,0.06431425362825394,-0.05442822352051735,-0.0949016734957695,-0.14311377704143524,0.06873390823602676,0.00406659534201026,-0.05343467742204666,-0.1753493696451187,0.11723895370960236,0.020988523960113525,0.0917561948299408,0.026286959648132324,-0.03515680879354477,0.04859446361660957,-0.016257381066679955,0.007747409399598837,-0.019912753254175186,-0.007551305927336216,-0.08328118175268173,-0.1273554563522339,0.044790059328079224,-0.08028696477413177,-0.014506100676953793,-0.05706699937582016,-0.04246052727103233,-0.009771659970283508,0.05881777033209801,0.015419596806168556,0.03834445774555206,-0.04489293694496155,-0.0342438630759716,0.02182401530444622,0.03327685967087746,-0.017573175951838493,0.10027983039617538,-0.03948880732059479,-0.020122647285461426,0.042034246027469635,-0.01563822105526924,0.04375123977661133,-0.12170861661434174,0.03847160190343857,-0.02226547710597515,-0.029602305963635445,-0.04146313667297363,0.04450525715947151,0.04957045242190361,-0.04927666857838631,-0.06977923959493637,-0.06337781250476837,0.043496932834386826,-0.029925668612122536,0.1417505443096161,0.07190234214067459,-0.05962613224983215,0.022751135751605034,-0.04460720717906952,-0.01799779385328293,-0.0022397430147975683,-0.031700510531663895,-0.02399362064898014,0.07323945313692093,-0.05515632778406143,0.07434432953596115,0.09022670239210129,-0.046983957290649414,0.11184266209602356,6.021512090228498E-4,0.0022625282872468233,-0.02373296581208706,-0.08468867838382721,0.0602571964263916,0.18554313480854034,0.1329299360513687,-0.2234722077846527,0.008583291433751583,-0.12218859046697617,-0.02070545218884945,-0.10372532159090042,-0.04186049476265907,-0.13938051462173462,0.1725745052099228,0.004216460976749659,0.010654152370989323,-0.17189809679985046,0.04905729740858078,-0.09982847422361374,0.10422413796186447,0.08364452421665192,-0.03744432330131531,0.009583073668181896,0.009943547658622265,-0.03011695109307766,-0.0663875937461853,0.009695653803646564,0.0015013196971267462,-0.001768429414369166,-0.04820411279797554,-0.03021012805402279,-0.011355944909155369,0.06414761394262314,0.03687269985675812,-0.055197060108184814,-0.1280764490365982,-0.08411825448274612,-0.08516085147857666,0.025002408772706985,-0.03392598405480385,-0.05928079038858414,0.003532540751621127,-0.061435338109731674,-0.05720620974898338,-0.1022070050239563,0.0033334249164909124
affichées,-0.08096190541982651,0.003112846752628684,-0.054402731359004974,-0.13720083236694336,0.10556323081254959,-0.004773425869643688,-0.10222218930721283,-0.05136721581220627,-0.04129141941666603,-0.11888104677200317,-0.036565929651260376,0.1203436627984047,0.03472372516989708,-0.060237739235162735,0.09589534997940063,0.001090864185243845,-0.1305224448442459,-6.816203822381794E-4,0.022467447444796562,0.03846926987171173,-0.05725434049963951,-0.08901254832744598,-0.04957381263375282,-0.024750735610723495,0.05970516800880432,0.0056259348057210445,-0.00865561980754137,-0.04097355902194977,0.0331214964389801,0.038320645689964294,0.05634780600667,-0.036954037845134735,-0.10921107232570648,-0.05968822166323662,0.05142207816243172,-0.03176724538207054,0.00931753683835268,0.1288105994462967,0.013811791315674782,0.06909641623497009,0.011457099579274654,0.010683625005185604,0.07347549498081207,-0.03240811452269554,0.10956446081399918,0.06919524073600769,0.0646829605102539,-0.007251262664794922,0.10689640045166016,0.13320624828338623,0.032036375254392624,-0.09402955323457718,-0.008361655287444592,0.09307854622602463,-0.02916203811764717,0.17015379667282104,0.05636945366859436,0.07630667090415955,0.022015566006302834,-0.04485316202044487,0.014390474185347557,0.151954784989357,0.13765552639961243,0.07269652932882309,-0.06563393026590347,-0.020520389080047607,0.1633276641368866,0.04329051822423935,0.16283327341079712,0.12881790101528168,0.13982445001602173,-0.008916663937270641,-0.0439058393239975,-0.014688468538224697,-0.0021731401793658733,0.016982289031147957,-0.03533616289496422,-0.06289751082658768,0.04155809059739113,-0.041200969368219376,-0.00985278282314539,0.12959204614162445,0.014285124838352203,-0.18317732214927673,0.09260721504688263,-0.09581003338098526,-0.033213816583156586,-0.08948126435279846,-0.021905412897467613,0.027684858068823814,-0.009984801523387432,0.10069193691015244,0.024539463222026825,-0.0016970529686659575,0.007086745463311672,0.0945017859339714,-0.007322418503463268,0.06762752681970596,-0.06755784153938293,-0.038533128798007965,0.02052500657737255,-0.015963712707161903,-0.009537529200315475,0.1286819875240326,0.06623493880033493,0.12247748672962189,-0.09333499521017075,0.08195352554321289,0.014379015192389488,0.08577822148799896,-0.023229189217090607,-0.07672283798456192,0.030041109770536423,0.014067611657083035,0.08238539099693298,-0.07340914011001587,-0.012302453629672527,0.01801365055143833,-0.03131980821490288,-0.03505418077111244,0.08627219498157501,-0.10225971788167953,0.08173245191574097,0.11134707182645798,0.0022503987420350313,-0.0849195048213005,-0.05004981905221939,-0.00863960012793541,0.012336259707808495,-0.06223068758845329,0.09240001440048218,0.08002246916294098,0.039615560322999954,-0.027175286784768105,-0.04508226737380028,0.042651910334825516,-0.020433031022548676,-0.03709958493709564,0.15093901753425598,0.06189588084816933,0.07703937590122223,-0.0959281399846077,-0.0014713407726958394,0.13083212077617645,-0.08583538979291916,0.013115502893924713,-0.07253056764602661,0.07568231225013733,0.039104584604501724,-0.02445836178958416,0.010768146254122257,-0.020987510681152344,0.03751842677593231,-0.0011471040779724717,-0.04419611394405365,0.0012967289658263326,0.08242618292570114,-0.0716792419552803,0.03417903929948807,-0.05318016931414604,0.029008418321609497,0.07346908748149872,-0.01551791187375784,0.002111491048708558,-0.04725427180528641,-0.04693695530295372,-0.025695079937577248,-0.06738842278718948,0.07780957967042923,0.004756722133606672,-0.0453837588429451,0.041440028697252274,-0.046122074127197266,-0.02563086897134781,0.14281673729419708,-0.023530252277851105,0.036592427641153336,-0.06259758025407791,0.011553406715393066,0.09562298655509949,0.02658390812575817,0.07541490346193314,0.11656270176172256,0.14887946844100952,-0.07361337542533875,-0.019530270248651505,-0.03675699979066849,0.07528145611286163,-0.1053670346736908,-0.06749144941568375,-0.05499894917011261,0.0167021993547678,0.13617753982543945,0.017857419326901436,-0.02790224924683571,-0.06673356145620346,-0.04503243789076805,0.047866091132164,0.0299614816904068,-0.10888075828552246
secondes,0.07089211046695709,-0.08827086538076401,-0.004285202827304602,6.489742081612349E-4,0.009015609510242939,0.09612622857093811,-0.05551310256123543,-0.07744433730840683,0.05632246658205986,-0.06206634268164635,0.05455629155039787,-0.031699296087026596,0.12346712499856949,-0.03545721247792244,0.009974312968552113,-0.008191626518964767,0.04680917039513588,-0.04449884593486786,-0.10383392870426178,-0.039207641035318375,-0.0440317764878273,0.028662139549851418,-0.032910626381635666,-0.12617629766464233,0.1087583526968956,0.0022486632224172354,-0.09294840693473816,0.07260078936815262,0.12330520898103714,-0.09281878173351288,0.05825619399547577,0.09912736713886261,0.019870169460773468,-0.10918205231428146,0.12567594647407532,0.029164617881178856,-0.06992251425981522,0.040886636823415756,0.06588603556156158,0.039034195244312286,0.15684060752391815,-0.1025451272726059,-1.8728175200521946E-4,-0.015298249199986458,-0.013013199903070927,0.10970654338598251,0.003946451470255852,0.046768322587013245,-0.013344126753509045,-0.009051264263689518,-0.06047601252794266,0.01993601955473423,9.130289981840178E-5,-0.027420857921242714,0.02691815234720707,0.12764619290828705,-0.09196460992097855,0.027479233220219612,0.03024444356560707,-0.06827843934297562,0.1010163426399231,0.09782923758029938,0.12172774970531464,-0.030268006026744843,0.02307632565498352,0.029766293242573738,-0.012523380108177662,0.031352464109659195,0.06208821386098862,-0.01806793548166752,0.08237985521554947,-0.06014637649059296,-0.01035374402999878,0.0892314687371254,-0.0011648837244138122,-0.03132931888103485,0.06123055890202522,-0.015611963346600533,0.05687174201011658,-0.1430044174194336,0.0018766801804304123,-0.012645764276385307,0.011856775730848312,-0.08913882821798325,-0.01314803771674633,-0.022422321140766144,0.05231061950325966,-0.07446524500846863,-0.03517505154013634,0.04402704909443855,0.07417754828929901,0.06174243614077568,0.05187233164906502,0.02563796192407608,0.09665301442146301,0.02382494881749153,0.15574544668197632,0.07368210703134537,-0.007437897380441427,-0.08735391497612,0.030462898313999176,0.02744174376130104,0.07603870332241058,-0.012097765691578388,0.03852216899394989,-0.11208900064229965,-0.046440575271844864,-0.05076711252331734,-0.10571849346160889,-0.05482110008597374,-0.17530693113803864,-0.0432564914226532,0.08831362426280975,0.10242174565792084,0.07425720244646072,-0.07844725996255875,0.027037238702178,0.050268396735191345,-0.08193377405405045,-0.06391483545303345,-0.09200802445411682,0.03540465980768204,0.08693327754735947,0.1308758407831192,0.05802064761519432,-0.034946706146001816,0.06634271889925003,-0.0679112896323204,-0.10384351760149002,0.04395247623324394,0.04789915308356285,0.025556039065122604,0.1324419528245926,0.06429187953472137,-0.1577570140361786,-0.019399190321564674,-0.06909170001745224,-0.08153827488422394,-0.05605599284172058,0.07192008197307587,0.021577414125204086,0.06147131323814392,-0.15471012890338898,0.1756698191165924,-0.05154940485954285,-0.0343143492937088,0.009404580108821392,0.04850272834300995,0.01429121196269989,-0.0017739833565428853,0.06143302470445633,-0.08855444192886353,0.04432477429509163,0.04716377332806587,-0.07516197860240936,-0.003914182540029287,-0.06136637553572655,0.1392006278038025,0.10000255703926086,0.03217426314949989,0.001849513966590166,-0.0756092518568039,-0.1187930703163147,0.07161843776702881,-0.05221502482891083,-0.10417558252811432,-0.06548425555229187,-0.027638232335448265,0.0493927076458931,0.004317390266805887,-0.05500165373086929,-0.07303869724273682,0.03369798883795738,-0.10332761704921722,0.10332025587558746,0.07133107632398605,-0.01923307776451111,-0.08513378351926804,-0.002413419773802161,0.06155547872185707,0.05129660293459892,-0.023989727720618248,0.07205444574356079,0.06652943044900894,-0.13166703283786774,0.06358300894498825,0.023263920098543167,-0.0031917968299239874,-0.11315500736236572,-0.05695800483226776,0.002632784191519022,0.08592279255390167,0.07493644207715988,-0.03494295850396156,0.02696416713297367,0.02981075458228588,0.032262030988931656,-0.06505361199378967,-0.047076672315597534,0.08994422852993011
ram,0.024884914979338646,0.04457852989435196,-0.10044778138399124,-0.06054352968931198,-0.00716757494956255,0.07521285861730576,-0.06473834812641144,-0.017364639788866043,-0.09642598778009415,-0.0970320925116539,-0.027468400076031685,-0.014294913038611412,-0.06119946390390396,-0.005915519781410694,-0.15290960669517517,-0.024707190692424774,0.08777949959039688,-0.011550717055797577,-0.13181622326374054,-0.022645505145192146,-0.06228947639465332,0.009669633582234383,0.02128075808286667,-0.20277893543243408,0.04444843903183937,-0.048214104026556015,-0.017872165888547897,0.04805834963917732,0.13540738821029663,-0.03365275263786316,-0.01300724409520626,0.15749669075012207,0.01255764625966549,-0.019688457250595093,0.04899442195892334,0.02100984752178192,-0.0555020347237587,-0.007341555319726467,0.03963889181613922,-0.06532208621501923,0.051916275173425674,0.008048324845731258,0.0060161869041621685,-0.07850322127342224,0.11497713625431061,-0.02904520370066166,-0.0057824295945465565,0.0311371311545372,-0.10324709862470627,-0.06926779448986053,-0.047088418155908585,0.010742614977061749,0.10572505742311478,-0.01563744619488716,0.037653595209121704,-0.0036048833280801773,0.021065926179289818,-0.06375961750745773,-0.02085092104971409,0.06071041524410248,0.01949867233633995,-0.08699578791856766,-0.05441121757030487,-0.026754871010780334,-0.03850647807121277,0.07085428386926651,-0.1706089824438095,0.007632263004779816,0.0406818725168705,0.07827482372522354,-0.08022970706224442,-0.003636167151853442,0.07106053084135056,0.0517791323363781,0.02157900668680668,0.043919872492551804,-0.03866707906126976,0.03012113831937313,0.09985648840665817,0.10823481529951096,0.023144198581576347,0.09307417273521423,-0.12410944700241089,-0.03620215877890587,0.00867135263979435,-0.040771231055259705,0.06771767139434814,0.04213821887969971,-0.019985845312476158,-0.09411823749542236,0.03168192878365517,-0.029515407979488373,-0.051684580743312836,-0.06371277570724487,0.14813578128814697,-0.03714781627058983,0.009161478839814663,0.04994012787938118,-0.05753503367304802,0.056261833757162094,-0.114484041929245,-0.02274879813194275,-0.10224685072898865,-0.0276231300085783,-0.0757564976811409,-0.02522711455821991,0.02192755416035652,-0.04013431444764137,0.050689078867435455,-0.07595930248498917,-0.0160477664321661,0.020321238785982132,0.05660315230488777,0.07976901531219482,0.04927898570895195,-0.002383837243542075,-0.10798131674528122,0.050354182720184326,-0.025230184197425842,-0.02556203305721283,0.00883808359503746,0.0373021624982357,-0.006223657168447971,0.07461864501237869,0.06729279458522797,-0.046282701194286346,-0.138629749417305,-5.519225960597396E-4,0.054297223687171936,-0.006135234609246254,-0.004878150299191475,0.008279925212264061,0.04139344021677971,-0.041628286242485046,-0.11496250331401825,-0.03009156882762909,0.004767060745507479,-0.03408976271748543,0.062006596475839615,0.11965454369783401,-0.044941216707229614,0.0032797683961689472,0.00922786071896553,-0.017091527581214905,0.018190033733844757,0.04736896604299545,-0.06925646215677261,0.1656036227941513,-0.11036142706871033,0.07707847654819489,0.07793191820383072,-0.0172051340341568,0.08347359299659729,-0.07097731530666351,-0.07713264226913452,0.001600484480150044,-0.1099771186709404,0.13742972910404205,0.049018099904060364,0.11090980470180511,-0.15351244807243347,0.018732883036136627,-0.16449500620365143,-0.006667857524007559,-0.007118351757526398,-0.03355008363723755,-0.10140831023454666,0.1613672375679016,0.0778684988617897,-0.02845555543899536,-0.11102479696273804,-0.015062294900417328,-0.1479942798614502,0.06913930922746658,0.07484984397888184,-0.08695448935031891,-0.13718870282173157,-0.006574547383934259,0.001814149203710258,-0.0828864797949791,-0.06330887228250504,-0.014977729879319668,-0.03957916423678398,0.027937764301896095,-0.022585932165384293,-0.15304630994796753,0.0939604640007019,-0.009386084973812103,0.022220605984330177,-0.09811609238386154,-0.11579902470111847,-0.11504469811916351,-0.04720824956893921,0.017035968601703644,-0.07502776384353638,0.10235763341188431,-0.0821528434753418,0.010039702989161015,-0.06585241854190826,-0.007936439476907253
stagiaires,-0.03615796938538551,-0.009528221562504768,0.02199198305606842,-0.04028983786702156,-0.012311791069805622,0.09720475226640701,-0.0067092040553689,-0.019701218232512474,-0.01684802956879139,0.0062056491151452065,0.04117420315742493,-0.05873020738363266,0.009303180500864983,0.02573505789041519,0.11078357696533203,0.004635606426745653,0.07540632784366608,0.06470749527215958,0.08478358387947083,0.025351548567414284,0.036718446761369705,-0.07825428247451782,0.17085278034210205,0.02305227890610695,-0.055120039731264114,0.021692590788006783,-0.07592549920082092,0.02053886465728283,0.07479186356067657,-0.05472728982567787,0.052577365189790726,-0.08396326750516891,0.06912682205438614,0.0372648648917675,0.1555711179971695,-0.011829650029540062,-0.0453348308801651,-0.01633104868233204,0.07920307666063309,0.09632876515388489,0.06538735330104828,-0.12501469254493713,0.03168877586722374,3.6803013063035905E-4,0.049094345420598984,0.06950806826353073,-0.09511824697256088,-0.02270171418786049,0.15890173614025116,0.11022887378931046,0.03461597487330437,0.09769045561552048,0.0021365974098443985,0.08699403703212738,0.045722510665655136,0.034283559769392014,0.0753069519996643,-0.02199278213083744,-0.15089425444602966,0.050108566880226135,-0.024569569155573845,-0.06687717139720917,-0.05062713474035263,0.15486034750938416,-0.07484713196754456,-0.04600928723812103,-0.07612452656030655,0.06197509914636612,0.11131259799003601,0.17053402960300446,0.003949658013880253,0.15987126529216766,-0.008652006275951862,0.14064867794513702,-0.0629010945558548,0.025642260909080505,-0.10918987542390823,0.06104859709739685,0.12195458263158798,0.01106010377407074,-0.052050452679395676,0.09841129928827286,-0.06508085131645203,-0.08311524987220764,-0.08261389285326004,-0.004340282641351223,0.02720637060701847,-0.04278114065527916,-0.11934173107147217,-0.1145022064447403,0.10954354703426361,-0.05895043537020683,0.03698636591434479,-0.07211580872535706,0.036545529961586,-0.06602350622415543,0.04636988416314125,0.05105164274573326,-0.03679148480296135,0.07214298099279404,-0.06366895139217377,0.0414610356092453,-0.07537993788719177,0.06978415697813034,-0.07367099821567535,-0.1054014340043068,0.020353814586997032,0.027904313057661057,-0.023151913657784462,-0.021061832085251808,0.032808586955070496,-0.002778334077447653,-0.029389789327979088,-0.05114102363586426,0.011037382297217846,0.08097625523805618,-0.05051075667142868,0.10838491469621658,-0.021646445617079735,-0.11196667701005936,0.08354552835226059,-0.004394428338855505,0.0036826254799962044,-0.07667714357376099,-0.07081581652164459,-0.03586222976446152,0.036489494144916534,0.043512143194675446,0.08043333142995834,-0.05764532461762428,-0.05443190038204193,0.003563022008165717,-0.011938776820898056,0.0015239648055285215,-0.11026636511087418,-0.002816100837662816,0.055202364921569824,0.10648886114358902,0.01783445104956627,0.0721597746014595,-0.10549905896186829,0.12202494591474533,-0.04432743042707443,0.15660874545574188,0.11381232738494873,0.04187612608075142,0.015408974140882492,0.031934358179569244,-0.03873516619205475,0.05292949080467224,0.15223492681980133,-0.00346302124671638,-0.055075425654649734,0.04794829711318016,-0.05439608916640282,0.028350502252578735,-0.06719229370355606,0.10205462574958801,0.13367821276187897,0.11583296209573746,-0.1461142599582672,-0.003938750829547644,-0.060803528875112534,0.03984571620821953,-0.008211040869355202,-0.04761173576116562,0.05465846508741379,-0.04390723258256912,0.07239944487810135,-0.01354893483221531,-0.03053129091858864,-0.04583915323019028,-0.01615215837955475,0.022776756435632706,0.08597894757986069,0.009128119796514511,-0.09064089506864548,-0.012543825432658195,0.01824827864766121,0.08406800031661987,0.0864999070763588,-0.09644065797328949,-0.10298942029476166,-0.08870254456996918,-0.11348631978034973,-0.02375306934118271,0.005944200325757265,0.009623462334275246,0.04220396652817726,0.10304893553256989,0.05015590786933899,0.05228131264448166,0.011778799816966057,-0.06787201762199402,-0.06665243953466415,-0.025654004886746407,0.04855646938085556,0.01323864795267582,-0.007698908448219299,-0.01938747614622116
assigné,-0.02490590326488018,-0.026597175747156143,0.006891184952110052,-0.047174397855997086,0.048616450279951096,0.05991942435503006,-0.16585464775562286,-0.017662476748228073,-0.07065779715776443,-0.16547580063343048,-0.12314463406801224,-0.010428976267576218,-0.06633909046649933,-0.0522477924823761,0.07494543492794037,-0.04490698501467705,0.06544702500104904,-0.07351251691579819,-0.0814707800745964,0.012416995130479336,-0.11262974143028259,-0.027861598879098892,0.005691962316632271,-0.10213170200586319,0.10952695459127426,-0.030516119673848152,-0.05538616701960564,-0.030221058055758476,0.09184998273849487,0.0027756609488278627,-0.07063081860542297,0.1328020691871643,0.046751052141189575,0.012212445959448814,-0.019011182710528374,-0.03551483899354935,-0.022324658930301666,-0.01790628954768181,0.03351783752441406,-0.013826260343194008,0.054868485778570175,-0.15002034604549408,0.01629721187055111,0.17795537412166595,0.02645406685769558,-0.05763087794184685,-0.008429422043263912,-0.07791246473789215,-0.04318167269229889,-0.011782447807490826,-0.038109127432107925,0.09679172933101654,0.06125180050730705,0.004164951853454113,-5.197854479774833E-4,0.14487338066101074,0.1504586637020111,-0.010021799243986607,-0.0011276461882516742,-0.09512709081172943,0.006850245874375105,0.051209691911935806,-0.07020734995603561,0.003976562526077032,-0.01768135279417038,0.08600480109453201,-0.03937287628650665,-0.018867023289203644,0.02928350679576397,0.13047334551811218,0.11894676834344864,-0.05000011995434761,0.058962054550647736,0.16092680394649506,0.10607597231864929,0.16241633892059326,-0.11524283140897751,0.05179881304502487,0.15946455299854279,0.03549943491816521,0.033693160861730576,-0.0047650886699557304,-0.05997040495276451,0.009502273984253407,0.049436163157224655,-0.06808282434940338,-0.016286278143525124,0.06243474781513214,0.031588803976774216,-0.07036060094833374,-0.07647686451673508,-0.0033611308317631483,-0.10605397820472717,-0.09766249358654022,9.124258649535477E-4,0.08992475271224976,-0.07397501915693283,0.0873204842209816,-0.16506391763687134,-0.04723299667239189,-0.0839628353714943,0.027191225439310074,-0.010764517821371555,-0.10790789872407913,0.04497063159942627,0.057336002588272095,0.06369315087795258,0.020282510668039322,0.09303922206163406,-0.03461261838674545,-1.3343113823793828E-4,-0.052411794662475586,-0.0448419451713562,0.15200679004192352,0.019664887338876724,-0.09663544595241547,-0.08736647665500641,0.06936658173799515,-0.015426772646605968,0.007765408139675856,0.028494084253907204,-0.03718554601073265,0.058265939354896545,-0.012971864081919193,0.0255898330360651,-0.0996670052409172,-0.1755485236644745,-0.05910951644182205,0.02372790314257145,-0.05155401676893234,0.06793384999036789,0.019811738282442093,-0.06067768484354019,-0.08328891545534134,-0.012904522009193897,-0.07760823518037796,-0.05983904004096985,0.060022253543138504,0.08290180563926697,-0.05691253021359444,-0.0664292573928833,-0.08794642239809036,-1.5067748790897895E-5,0.050139233469963074,0.15397267043590546,-0.041620124131441116,-0.12917670607566833,0.11424192786216736,-0.07823720574378967,0.00466969795525074,-0.07304546236991882,-0.031188348308205605,-0.001718419953249395,0.007768868934363127,-0.037218522280454636,0.015916233882308006,-0.040152810513973236,-0.057471733540296555,0.04160240665078163,0.12939608097076416,-0.02694259211421013,4.414658178575337E-5,-0.0015716799534857273,0.03056463412940502,0.020998893305659294,0.044195499271154404,0.03789663687348366,0.06037724018096924,-0.055772580206394196,0.06638132780790329,0.08420403301715851,-0.08695763349533081,-0.01806308701634407,0.04141003265976906,-0.021202685311436653,-0.04062963277101517,-0.0441066138446331,-0.0369727686047554,0.09389548003673553,-0.0541289784014225,-0.07345477491617203,0.07009033858776093,-0.051218725740909576,0.02287871018052101,0.01023178081959486,-0.015206323005259037,0.14515425264835358,0.0028429508674889803,0.04285654053092003,-0.08230855315923691,-0.05593162775039673,0.0029086207505315542,0.03759820759296417,0.01256468240171671,-0.0013006642693653703,0.07993432134389877,0.007431835867464542,0.030673306435346603,-0.012925609014928341,-0.10891779512166977
résultat,-0.06734056025743484,-0.036836087703704834,-0.04663927108049393,-0.05622907355427742,0.03413243964314461,-0.08848308026790619,-0.08853068947792053,-0.024128496646881104,-0.01711970753967762,-0.030784232541918755,-0.11615540087223053,-0.014407179318368435,-0.013847719877958298,0.003342670388519764,-0.03196004405617714,-0.034660328179597855,-0.02262306958436966,-0.09677078574895859,-0.06565342098474503,0.027078084647655487,-0.01809471845626831,0.06681045889854431,-0.23544296622276306,-0.005461884196847677,0.055418845266103745,-0.004470209591090679,0.06957443803548813,-0.09805046766996384,0.008220689371228218,0.04424295574426651,-0.03986231982707977,-0.10689875483512878,-0.07465915381908417,-0.07169963419437408,0.05874994024634361,-0.002092950511723757,-0.010288195684552193,0.045162614434957504,0.16047005355358124,0.05709761381149292,-0.0981101468205452,-0.03667328134179115,0.1265340894460678,0.12481629103422165,0.018439508974552155,0.09880966693162918,0.09944839030504227,-0.04785771667957306,0.08880367130041122,-0.012086429633200169,-0.043383464217185974,-0.004770938772708178,0.018282834440469742,0.04915463924407959,-0.027387674897909164,0.13872398436069489,0.15289464592933655,0.04839204251766205,-0.0792078897356987,-0.03442448750138283,-0.05179216340184212,0.07915553450584412,0.1435154527425766,0.05059245601296425,-0.04238559678196907,0.08784434199333191,0.05960867553949356,0.0832536369562149,0.07534085214138031,0.003171386197209358,0.1262567788362503,-0.04005355015397072,-0.08473547548055649,0.012937688268721104,0.010540769435465336,0.07458184659481049,0.01368989422917366,0.025174662470817566,0.02230139449238777,-0.01226164773106575,0.04111950099468231,0.06841561943292618,-0.06101841479539871,-0.06256518512964249,0.04631325230002403,-0.07263709604740143,-0.0782892033457756,-0.08975091576576233,0.014999273233115673,-0.07852860540151596,0.04500986635684967,0.048068515956401825,-0.08163772523403168,-0.1150771901011467,0.046708088368177414,0.08428003638982773,0.04371664300560951,0.09445982426404953,-0.07960698008537292,0.012815936468541622,0.06620625406503677,-0.02894844114780426,0.12762685120105743,-0.0403403639793396,-0.008467789739370346,0.028214719146490097,-0.04473232105374336,-0.025563782081007957,-0.112885482609272,3.4887841320596635E-4,0.05348551645874977,-0.040431149303913116,0.004542805254459381,-0.003516663098707795,0.033480383455753326,-0.1215943992137909,-0.04590561240911484,0.002834323327988386,0.036821022629737854,-0.1333552598953247,0.14049045741558075,-0.07890734821557999,0.04378107190132141,0.02796141803264618,0.04173066094517708,-0.08344091475009918,0.01828787662088871,0.02559877187013626,-0.04102323576807976,-0.06677503138780594,-0.057986147701740265,0.1394384652376175,-0.006946043577045202,0.006431523710489273,-0.0570356510579586,0.04743457958102226,-0.028542410582304,-0.014258522540330887,0.045566022396087646,-0.0023991784546524286,0.01857372745871544,-0.039803992956876755,0.00327704637311399,0.125959575176239,-0.10496611148118973,0.017833007499575615,-0.1082465872168541,0.06540052592754364,-0.02126792073249817,0.05829102545976639,0.10532776266336441,-0.06784810870885849,0.042121440172195435,0.008655925281345844,-0.018522970378398895,0.09793652594089508,0.05973996967077255,-0.043543826788663864,0.05314895138144493,0.06070661544799805,-0.12587884068489075,0.14067402482032776,-0.004030066542327404,-0.057930491864681244,0.0635140985250473,0.012283866293728352,-0.03352934867143631,0.10834694653749466,0.0992237851023674,0.08048796653747559,-0.056969720870256424,0.02184249646961689,-0.19050006568431854,0.11886632442474365,0.08509308844804764,0.011434169486165047,0.042291317135095596,-0.06719696521759033,0.08055765926837921,-5.141159053891897E-4,0.023709066212177277,0.060341596603393555,0.1625291109085083,0.07061419636011124,-0.010424893349409103,-0.04489932581782341,0.03754155710339546,0.0403573140501976,-0.10562421381473541,-0.04396781325340271,-0.0027156684082001448,-0.06350307911634445,0.07354001700878143,-0.008827953599393368,-0.037347763776779175,0.07141265273094177,-0.11465723067522049,-0.011205578222870827,-0.08697568625211716,-0.06762956827878952
google,-0.09121543914079666,0.044276267290115356,-0.03873327374458313,-0.09998609125614166,0.1422634720802307,0.04915788397192955,-0.11617197841405869,0.022833431139588356,0.09443629533052444,0.022010106593370438,-0.1027071475982666,-0.03534442558884621,-0.13156190514564514,0.009376720525324345,0.03861084207892418,-0.06823217868804932,-0.05735984444618225,-0.03907524794340134,-0.06231606751680374,0.0712810605764389,-0.033128391951322556,0.017225781455636024,0.013813488185405731,0.005426036659628153,0.04095485061407089,0.06436378508806229,-0.05729500949382782,0.12717966735363007,-0.019118700176477432,-0.012533124536275864,0.02720619924366474,-0.04358020797371864,0.008216255344450474,0.05628461390733719,0.004417815711349249,0.11822384595870972,-0.051456473767757416,0.04480072483420372,0.07899513095617294,-0.015719186514616013,-0.0916714072227478,0.06639289855957031,0.07565034925937653,0.052562180906534195,0.09222693741321564,-0.0073148757219314575,-0.028390835970640182,0.05670686438679695,0.09531497955322266,-0.002493409439921379,-0.09236907958984375,-0.03391978144645691,-0.09281325340270996,0.07076647132635117,0.113609179854393,0.04460279643535614,0.1029236689209938,-0.0408577099442482,-0.11375824362039566,0.010696915909647942,-0.002509560901671648,-0.09600210189819336,-0.01849871501326561,0.10693822056055069,-0.07542576640844345,-0.03007003478705883,0.16425754129886627,0.00621896842494607,0.1452697217464447,0.12244722247123718,0.13856512308120728,-0.00391128147020936,-0.07278594374656677,0.060483045876026154,0.002992885885760188,0.09069036692380905,0.0011930410983040929,0.08804841339588165,0.0063551063649356365,-0.01116144098341465,0.04003007709980011,0.18228919804096222,-0.15308202803134918,-0.07125333696603775,0.09040258824825287,-0.04145790636539459,-0.021137818694114685,0.02008265256881714,0.005497332662343979,-0.09004975855350494,0.09449076652526855,-0.08228453993797302,-0.07382357120513916,-0.13912494480609894,0.10753746330738068,0.048250965774059296,0.03512302041053772,-0.0548366978764534,-0.10152266174554825,0.06923845410346985,-0.015580485574901104,-0.03915678709745407,-0.05540875717997551,0.01595854014158249,-0.035088930279016495,-0.04296154901385307,0.009285327047109604,-0.04724859073758125,-0.03956961631774902,-0.15664033591747284,-0.08383218199014664,-0.09169865399599075,-0.022502539679408073,-0.024870960041880608,0.0686899721622467,-0.03734485059976578,0.0020143466535955667,0.08774367719888687,-0.05138726532459259,0.009100695140659809,0.11499856412410736,0.005412602331489325,4.448249819688499E-4,-0.08056271821260452,-0.06650930643081665,0.01700269803404808,-0.05101736634969711,-0.015407782047986984,0.09533227980136871,-0.15244463086128235,-0.07553102821111679,-0.031134983524680138,0.06892445683479309,-0.01620844192802906,-0.0630144402384758,-0.028910724446177483,-0.03894172981381416,0.09883193671703339,0.0924682766199112,0.0472099594771862,-0.07798954099416733,0.019181665033102036,-0.01749277487397194,0.11952319741249084,-0.10604771226644516,-0.0759783536195755,-0.06463723629713058,0.07666712999343872,-0.0645098015666008,0.03873750939965248,0.0017911005998030305,0.03497806191444397,0.01867172122001648,0.13308580219745636,0.01851840503513813,-0.004178417846560478,-0.028094522655010223,-0.0045834011398255825,0.13390570878982544,0.028843464329838753,-0.14739711582660675,0.006603157613426447,-0.036577172577381134,0.026910027489066124,3.455872065387666E-4,0.049567125737667084,-0.10030873864889145,0.042683761566877365,0.06890057772397995,-0.07014632225036621,-0.1569594144821167,-0.059907857328653336,-0.07684040814638138,0.03706677258014679,0.030532343313097954,-0.014831597916781902,0.04196447879076004,-0.09300892800092697,0.01990402303636074,0.0018744285916909575,0.08636728674173355,-0.033918920904397964,0.008446128107607365,-0.009403318166732788,-0.02991633303463459,-0.05196765437722206,-0.0600852333009243,0.09091823548078537,-0.013059348799288273,0.020145233720541,0.06605261564254761,-0.055015094578266144,-0.0303521528840065,-0.07695680111646652,-0.07867923378944397,-0.04240255430340767,-0.01807604543864727,-0.06801729649305344,0.0059668575413525105,-0.13745614886283875
passe,0.040698569267988205,-0.08438248932361603,-0.08293037116527557,-0.09616579115390778,-0.058189958333969116,-0.0706881582736969,0.05464695394039154,-0.16856485605239868,0.01112989243119955,-0.013163912110030651,0.03221513703465462,-0.033361464738845825,0.04712117463350296,-0.014294476248323917,0.11443483829498291,-0.04276653379201889,0.09091391414403915,0.1107320785522461,0.09824556112289429,-0.049920454621315,0.018680348992347717,-0.06075187772512436,-0.052406322211027145,-0.013512452132999897,0.06939323991537094,-0.020340213552117348,-0.03278954699635506,-0.019023623317480087,-0.06592372059822083,-0.09669926762580872,-0.029537402093410492,-0.09525452554225922,-0.025548970326781273,0.03848569840192795,0.12086877971887589,-0.06985016912221909,0.08729632943868637,0.04129646718502045,-0.0020391938742250204,0.05433148145675659,0.03722052648663521,-0.09404205530881882,0.07739485055208206,0.18035422265529633,-0.015923354774713516,0.034254223108291626,-0.04799669608473778,-0.1577281653881073,0.19437269866466522,0.14073042571544647,0.05663112923502922,0.10537207871675491,-0.04087882116436958,0.05144530534744263,-0.07387129217386246,-0.0410880520939827,-0.02237778529524803,-0.00188886106479913,-0.04352165013551712,-0.013784199953079224,-0.05541837960481644,0.01446688361465931,0.09135691821575165,-0.06266787648200989,0.06863005459308624,-0.041653502732515335,0.002633138792589307,-0.02180231176316738,-0.06092296540737152,-0.08675602078437805,-0.14362438023090363,0.07548589259386063,-0.02821948006749153,-0.05879535526037216,0.001801850157789886,-0.010303492657840252,-0.02516261115670204,-0.04625551402568817,-0.220246359705925,-0.053130973130464554,0.04922453314065933,-0.08333944529294968,-0.008984542451798916,-0.051409199833869934,-0.023971138522028923,0.18683260679244995,-0.061577774584293365,-0.01884879358112812,-0.016523368656635284,-0.07333913445472717,-0.03882570192217827,0.018219003453850746,0.06946742534637451,0.06587065756320953,-0.10684750974178314,0.12379211187362671,0.022443272173404694,-0.03758411854505539,0.09533626586198807,0.07534841448068619,0.08781775832176208,0.08268424868583679,-0.03639283403754234,0.051028646528720856,-0.011121549643576145,0.061673201620578766,0.05215434357523918,0.08133959025144577,-0.04699967801570892,0.06960656493902206,0.03121272660791874,0.10587316751480103,0.05329066514968872,-0.07515966147184372,0.0132431136444211,0.11955619603395462,-0.05101903900504112,0.046628765761852264,0.04634523764252663,-0.03297354280948639,-0.029394596815109253,-0.04673359543085098,-0.029787469655275345,-0.1531389057636261,-0.004441109485924244,-0.033398643136024475,0.048563215881586075,0.085765540599823,-0.05551064386963844,-0.027248598635196686,0.05264389514923096,0.036164164543151855,4.5220425818115473E-4,0.01080688089132309,-0.01826188527047634,-0.021144939586520195,0.061562858521938324,-0.0754789412021637,-0.04415961727499962,0.0012401979183778167,-0.1049814522266388,-0.07641907036304474,0.015336205251514912,0.08276359736919403,0.03104778379201889,-0.06634581089019775,-0.06994587182998657,-0.0744914636015892,0.08057203888893127,-0.009041646495461464,0.06407631188631058,0.05141943320631981,-0.06504672020673752,-0.005021080374717712,0.027259614318609238,0.07354522496461868,-0.049612730741500854,0.0012487960048019886,0.07605521380901337,0.10040044784545898,0.08476447314023972,-0.050389766693115234,0.06927648186683655,0.02616623416543007,-0.03009294904768467,0.11913242936134338,0.0010452659334987402,0.002375984098762274,0.0044212075881659985,0.05628584325313568,0.006606742739677429,-0.04072725772857666,0.00744997663423419,0.029238920658826828,-0.07391906529664993,0.13933254778385162,0.046671636402606964,-0.09159335494041443,0.06312413513660431,0.1461256444454193,0.03169505298137665,0.052969008684158325,-0.03707260638475418,-0.06077250838279724,0.0027028026524931192,-0.019614746794104576,0.003920841030776501,-0.09253834933042526,-0.037179358303546906,0.07278766483068466,0.053265031427145004,0.09679250419139862,0.049153536558151245,0.05251310020685196,0.12888048589229584,-0.10010140389204025,0.020701494067907333,-0.0777934193611145,0.13729898631572723,0.07104286551475525
version,-0.0469517782330513,-0.016871798783540726,-0.08698167651891708,-0.00305710406973958,0.053393322974443436,-0.04622311517596245,-0.018844950944185257,0.027276236563920975,0.1392296552658081,-0.01186421886086464,-0.07667582482099533,0.023656576871871948,0.045009031891822815,0.08771359175443649,0.015329659916460514,0.06703858077526093,-0.1402742713689804,-0.20261865854263306,-0.10809026658535004,-0.03370523080229759,-0.07227436453104019,0.047974392771720886,-0.12824098765850067,-0.02599530667066574,0.08279801160097122,0.049602311104536057,-0.05215592309832573,0.02059914916753769,0.03066185489296913,0.022434450685977936,-0.04952651262283325,0.10568149387836456,-0.14094164967536926,-0.0025908625684678555,-0.07776286453008652,-0.01693136990070343,0.006226964294910431,0.0206605177372694,-0.0029403604567050934,-0.016129370778799057,-0.05680621787905693,0.0853404775261879,0.09095755219459534,-0.10263032466173172,0.02764015831053257,-0.06777236610651016,0.18193483352661133,0.05282621085643768,-0.0238569974899292,-0.011952195316553116,-0.15770886838436127,-0.07322684675455093,0.07294446974992752,0.006688570138067007,-0.044817689806222916,0.1069319099187851,7.220414117909968E-4,-0.014415862038731575,-1.248173794010654E-4,0.025513188913464546,0.0662662610411644,0.0807666927576065,0.054884057492017746,-0.028899798169732094,0.011254237964749336,0.06885374337434769,0.04937618225812912,-0.08376513421535492,0.05874770134687424,-0.022474436089396477,0.180598646402359,-0.016749683767557144,0.09495323151350021,0.007109216880053282,-0.018231354653835297,-0.027057787403464317,0.029984071850776672,-0.02151268534362316,0.08193027973175049,-0.032480210065841675,0.0337274931371212,0.13294142484664917,0.02763880230486393,-0.04215402156114578,0.10867737233638763,-0.16710275411605835,-0.029063161462545395,-0.06253767758607864,-2.3051451717037708E-4,0.06002286449074745,-0.05730858072638512,0.03360915929079056,-0.03308851644396782,-0.04072800278663635,-0.0032088144216686487,0.04590442404150963,-0.05455043539404869,0.09203928709030151,-0.08591122180223465,-0.0522068627178669,0.06315432488918304,0.032435063272714615,0.06330311298370361,0.020796269178390503,-0.09211032092571259,0.07722766697406769,-0.0340130515396595,-0.16621491312980652,-0.0422445684671402,-0.029572034254670143,-0.03931223228573799,-0.08293764293193817,-0.0469345822930336,0.11862892657518387,-0.04212053492665291,-0.11771933734416962,0.07240445911884308,0.02632913738489151,-0.07671278715133667,0.03952057287096977,-0.03795119374990463,-0.11011091619729996,0.05659809336066246,0.0058378237299621105,0.0056624505668878555,-0.049099747091531754,-0.08159050345420837,-0.09429696947336197,0.036769263446331024,-0.05305434390902519,0.0324079692363739,0.13480126857757568,-0.035900648683309555,-0.026297394186258316,-0.06661293655633926,0.033999003469944,0.07930213958024979,-0.052112650126218796,0.08935458958148956,0.042558908462524414,0.09346537292003632,-0.03641888126730919,0.054948389530181885,-0.061729636043310165,-0.1225336417555809,0.04444168135523796,-0.030131345614790916,0.04517073184251785,0.010708918794989586,-0.005846844054758549,-0.04553402587771416,-0.01315971091389656,-0.025848543271422386,0.04643388092517853,0.010688399896025658,0.004142989870160818,3.787214227486402E-4,-0.013004702515900135,0.014698716811835766,0.07709963619709015,-0.1564982533454895,0.07387369126081467,-0.1061568334698677,-0.01648295670747757,0.07287895679473877,-0.021045127883553505,0.01888478919863701,-0.040457263588905334,-0.006120892707258463,-0.07428664714097977,-0.023394469171762466,0.04807732626795769,-0.09180653095245361,-0.0033984517212957144,0.09039566665887833,-0.07989700138568878,0.04781409353017807,-0.02752033621072769,0.008968648500740528,-0.028215639293193817,0.0523628294467926,0.07103908061981201,0.08915237337350845,0.15032196044921875,-0.1288004070520401,-0.06348583847284317,0.027231331914663315,-0.02334342710673809,-0.09452471137046814,-0.21467484533786774,0.005814440548419952,0.0685553178191185,0.003366119461134076,-0.04972144588828087,-0.07826761901378632,0.11088302731513977,-0.04416399076581001,-0.055487796664237976,-0.038323551416397095,-0.0999944657087326
cours,-0.01514479611068964,-0.07057353109121323,0.0496649406850338,0.06487765908241272,0.05820004269480705,-0.055144838988780975,-0.08534620702266693,-0.013565138913691044,0.07812053710222244,0.03956646844744682,0.012074573896825314,-0.041376274079084396,-0.04226745292544365,-0.0030289897695183754,0.07001077383756638,0.030785802751779556,0.049142368137836456,-0.011404777877032757,0.043481551110744476,0.02495483122766018,-0.010400664061307907,0.00564368162304163,-0.015315630473196507,-0.007799671497195959,0.026598719879984856,0.06596161425113678,-0.020159849897027016,-0.06049743667244911,0.008409077301621437,0.04013736546039581,0.01608552224934101,-0.08601350337266922,0.046531494706869125,0.023581529036164284,0.055867407470941544,-0.004672130569815636,-0.0056671882048249245,-0.04356977343559265,0.15117470920085907,0.11661747843027115,-0.04840967059135437,-0.07215781509876251,-0.01699116826057434,0.11250590533018112,-0.05163424462080002,0.046934131532907486,-0.0074052633717656136,0.007907163351774216,0.1829659342765808,0.10164512693881989,0.05952797457575798,0.0913599506020546,-0.08256600052118301,0.04588858783245087,-0.02273196540772915,0.07708670198917389,0.04032917693257332,0.03503144532442093,-0.05260000005364418,-0.037622079253196716,-0.06601208448410034,-0.002749438863247633,-0.021251967176795006,0.09092795848846436,0.019442850723862648,-0.04689975827932358,0.10443119704723358,0.08749056607484818,0.0038527355063706636,-0.00981205515563488,0.016739249229431152,-0.039757587015628815,-0.1857023686170578,0.07618432492017746,0.01372141670435667,0.07000511139631271,-0.028653640300035477,0.009195102378726006,-0.024403274059295654,-0.05879192799329758,-0.06727351993322372,0.004978116136044264,-0.09268681704998016,-0.06290131062269211,0.010342602618038654,0.07220415771007538,-0.08693448454141617,0.07106097787618637,-0.006405417341738939,-0.04587666690349579,-0.029485344886779785,-0.01223490945994854,-0.023364121094346046,-0.0504484698176384,0.008934805169701576,-0.02892599254846573,2.8038854361511767E-4,0.09664042294025421,-0.07443243265151978,0.008304832503199577,0.003951176535338163,0.05248145014047623,0.04977334290742874,0.0032716565765440464,-0.0123058520257473,-0.013568432070314884,-0.024128884077072144,0.011668040417134762,-0.11889628320932388,-0.08728746324777603,0.006226998288184404,-0.029380381107330322,-0.08251766860485077,-0.004718202166259289,-0.03032923862338066,0.05156923085451126,0.02822316810488701,0.04824629798531532,-0.05801302194595337,-0.09975435584783554,0.03157841041684151,-0.07154085487127304,0.04007051885128021,-0.02364678867161274,0.01082488615065813,-0.13925951719284058,0.032224107533693314,0.04338477924466133,0.03914612904191017,-0.1010756567120552,-0.06761990487575531,0.10348960012197495,0.00523784477263689,-0.02133709006011486,-0.16920001804828644,0.0538453534245491,-0.06945540755987167,0.028969846665859222,0.0055328370071947575,0.0909716859459877,-0.13979102671146393,0.11951182782649994,0.01666402257978916,0.1662801057100296,-0.040474049746990204,0.011434302665293217,-0.1144043430685997,0.07218930870294571,-0.11583470553159714,0.06474224478006363,0.11470885574817657,-0.022707266733050346,-0.13081307709217072,0.010973294265568256,-0.11390257626771927,0.08545249700546265,0.013469181954860687,0.08414670825004578,0.044516030699014664,0.14672160148620605,-0.16059330105781555,0.13167719542980194,-0.021447356790304184,0.01599082536995411,0.1351964920759201,0.025476455688476562,-0.05135153606534004,0.07524450123310089,0.23262254893779755,0.08520012348890305,-0.06375033408403397,-0.06406016647815704,-0.1319797933101654,-0.018136613070964813,0.07028172165155411,0.005902490112930536,0.03568107262253761,-0.09417883306741714,0.110252745449543,0.011404241435229778,0.10116412490606308,0.03892097994685173,0.08790730684995651,0.04142427816987038,-0.04391643777489662,-0.14063695073127747,-0.031229864805936813,0.031662020832300186,-0.04153569042682648,0.07608812302350998,0.14849026501178741,0.03925230726599693,0.019948355853557587,-0.14619633555412292,-0.047951485961675644,0.07242641597986221,0.011794880963861942,-0.032233305275440216,-0.06730964034795761,-0.062214940786361694
dupliqués,-0.0051392144523561,0.02302105352282524,-0.08321718126535416,-0.22690358757972717,-0.039891090244054794,0.008953597396612167,-0.035556610673666,-0.015912426635622978,0.0019268053583800793,0.08665731549263,-0.07863013446331024,0.036019474267959595,-0.007528928108513355,0.03425672650337219,-0.13767768442630768,-0.00510224886238575,-0.01464082021266222,0.007251549977809191,0.023119324818253517,-0.07880081236362457,0.017081083729863167,0.06395911425352097,-0.04072045162320137,-0.09143053740262985,-0.04468579590320587,0.064948171377182,-0.006575244944542646,0.03157168999314308,-0.038757987320423126,0.014373727142810822,0.07221584767103195,-0.02235698327422142,-0.057894784957170486,-0.007454405073076487,0.1077563613653183,-0.021239064633846283,-0.07684500515460968,0.07439372688531876,0.0797513946890831,0.013997434638440609,-0.0791536495089531,0.018482955172657967,0.07091037184000015,-0.07363449782133102,0.10992291569709778,0.10562426596879959,0.17209455370903015,-0.03768836706876755,-0.03395221382379532,0.00448051979765296,-0.08972088992595673,0.01634509116411209,0.03917549550533295,0.03222111240029335,0.01826860010623932,0.10481362044811249,0.10525636374950409,-6.11931667663157E-4,-0.2013159990310669,0.05384444072842598,0.03843916952610016,0.0037458306178450584,0.09089402854442596,0.03503061458468437,-0.00858436431735754,0.06601156294345856,-0.050062231719493866,0.04548247903585434,0.12809757888317108,0.12625235319137573,0.027978714555501938,0.09722321480512619,-0.04398656263947487,0.015690544620156288,0.03420881927013397,0.019237201660871506,-0.014043106697499752,0.06219891458749771,-0.0147092305123806,0.19389480352401733,-0.07727055251598358,0.16953207552433014,-0.04501374438405037,0.0015196959720924497,0.09649888426065445,-0.11265991628170013,-0.009164581075310707,-0.14917701482772827,-0.06676042824983597,-0.13755494356155396,-0.004319434054195881,0.010454902425408363,-0.01105301920324564,-0.09681791067123413,0.001842957572080195,-0.02751694619655609,0.023328162729740143,-0.09512411057949066,7.306698244065046E-4,-0.035957928746938705,0.09375578910112381,-0.01616526022553444,0.2134394347667694,0.012467240914702415,-0.05061892792582512,-0.006826280616223812,0.01896413043141365,-0.03681262955069542,-0.06705056130886078,0.06645917892456055,-0.016813628375530243,-0.029701709747314453,-0.06313356757164001,0.020568974316120148,-0.026521459221839905,-0.05122606083750725,-0.06644778698682785,-0.10093424469232559,0.12842221558094025,-0.09622140973806381,0.23080533742904663,-0.13724084198474884,-0.06238553300499916,0.04598049819469452,-0.04434102401137352,-0.04791335016489029,-0.06108091026544571,0.05865779519081116,0.030666396021842957,0.017705624923110008,0.017501136288046837,0.011696655303239822,-0.004140779841691256,0.015754470601677895,0.010273040272295475,-0.007524415850639343,-0.038221217691898346,0.04755761846899986,0.0645696222782135,-0.07608979195356369,0.01959092728793621,0.07490542531013489,0.0027355875354260206,-0.07092836499214172,0.07936307787895203,-0.009022491984069347,-0.06596517562866211,0.03939075395464897,-0.053207267075777054,0.020727504044771194,0.06900683790445328,-0.037577398121356964,0.065381720662117,-0.024886438623070717,0.09933121502399445,-0.0011109159095212817,0.09447072446346283,-0.06209152564406395,-0.006582190282642841,-0.034391362220048904,-0.12059321254491806,0.06007235497236252,0.06779313832521439,-0.02844180166721344,-0.06665092706680298,-0.040448058396577835,-0.01753646694123745,0.08807063847780228,0.10072053223848343,-0.042894624173641205,-0.08994892984628677,0.003807926317676902,-0.07966151088476181,0.0722229853272438,0.04109669104218483,0.03051944635808468,-0.031089358031749725,0.03411608934402466,-0.006617955397814512,0.04940858855843544,-0.025555938482284546,0.02709951624274254,0.022524943575263023,-0.14729076623916626,0.04575616121292114,0.030404653400182724,-0.09301578998565674,-0.029555775225162506,0.05400678887963295,0.006958757061511278,0.01321068312972784,-0.06769243627786636,-0.08402489870786667,-0.01715303584933281,-0.07998143881559372,-0.04758496209979057,-0.15934038162231445,0.036171820014715195,0.03882577270269394,0.03424884006381035
proxy,0.005858754273504019,-0.03852256387472153,0.015412741340696812,-0.08209548890590668,0.23464567959308624,0.01169219333678484,-0.09538204967975616,-0.026065053418278694,-0.06846146285533905,0.0160286333411932,0.007862752303481102,0.03822660818696022,-0.09356433898210526,0.06324002891778946,0.031144244596362114,-0.04515187069773674,0.03623291477560997,-0.013608512468636036,-0.030474642291665077,0.03877411037683487,0.0030094373505562544,-0.05603071674704552,0.020002806559205055,-0.018062176182866096,0.10111536085605621,0.012057051993906498,-0.10256402939558029,-0.07110992074012756,-0.06592626869678497,0.030639363452792168,-0.07025614380836487,0.008385498076677322,0.11868724972009659,-0.05794346332550049,-0.004486248828470707,0.012006512843072414,0.05824306607246399,0.0217294804751873,-0.041806600987911224,-0.03434062749147415,-0.05431846156716347,-0.07342548668384552,-0.015202653594315052,0.07018933445215225,-0.07656587660312653,0.010613420978188515,-0.04303191229701042,0.024493765085935593,0.1719069629907608,-0.043259624391794205,-0.06577769666910172,-0.007078489288687706,0.01416239608079195,0.06612376123666763,0.08424445986747742,0.010841143317520618,-0.00717908376827836,-0.03612188622355461,0.12471701204776764,0.03095417469739914,0.011610122397542,0.08916138857603073,-0.0990695059299469,0.02240745909512043,-0.0027053903322666883,-0.10782288759946823,0.1482548862695694,0.026261774823069572,-0.0027907928451895714,0.13243243098258972,0.09158196300268173,0.011194831691682339,-0.08281735330820084,-0.01443177554756403,0.0582769550383091,-0.0470687597990036,-0.0880880057811737,0.018958721309900284,-0.0725332573056221,0.018114574253559113,-0.022101564332842827,0.014095517806708813,0.016638996079564095,-0.06785617768764496,0.09881620109081268,-0.05390913039445877,0.033876869827508926,0.01831280067563057,0.029969776049256325,-0.10011280328035355,0.20162971317768097,-0.016517607495188713,-0.07081033289432526,-0.06983385235071182,0.09316036850214005,0.03353464603424072,0.10111160576343536,-0.023803800344467163,-0.04792383685708046,0.044286612421274185,-0.004497539717704058,-0.06871472299098969,-0.04010969027876854,-0.11565569788217545,0.010524170473217964,-0.1047109067440033,0.07266399264335632,0.09862455725669861,-0.12543614208698273,-0.1627686768770218,-0.14001397788524628,-0.08399835228919983,-0.020784437656402588,-0.005870319437235594,0.012692118994891644,0.06284996122121811,0.020218266174197197,0.02079561911523342,-0.011797312647104263,-0.02420886978507042,-0.026025308296084404,0.009614402428269386,-0.027199257165193558,0.09686920046806335,0.05534842982888222,-0.0508488193154335,0.036621641367673874,0.055008839815855026,-0.004842150490731001,-0.05435233563184738,-0.09192147105932236,0.0905732810497284,-0.02343037910759449,0.0639602318406105,-0.14496071636676788,-0.04500048607587814,-0.048114825040102005,0.07274357974529266,-0.0042054057121276855,0.19180545210838318,-0.08740675449371338,-0.005121227819472551,-0.15138845145702362,0.14023764431476593,-0.15194807946681976,0.0277458056807518,2.8115001623518765E-4,0.06364034861326218,-0.06068319082260132,-0.011223409324884415,0.07473166286945343,0.10871368646621704,-0.07478903979063034,0.1383112370967865,-0.14494502544403076,-0.026448674499988556,-0.06947261095046997,0.04884268343448639,0.09939828515052795,0.09668343514204025,-0.025981063023209572,0.026471514254808426,0.008787575177848339,0.026347799226641655,0.05887123942375183,-0.0038813925348222256,-0.12970109283924103,-0.009896968491375446,-0.005137917585670948,0.11721615493297577,-0.04026436805725098,-0.041474130004644394,-0.09550606459379196,-0.035909928381443024,0.04119044169783592,0.0052303955890238285,0.029367636889219284,-0.08609958738088608,0.05271447077393532,-0.0675414502620697,0.05334491655230522,-0.13732223212718964,0.11162795126438141,0.06271500885486603,-0.10332117229700089,-0.06893065571784973,-0.001954651903361082,0.013710875064134598,0.0161618422716856,0.0643242746591568,-0.009030729532241821,0.008303896524012089,0.0027460826095193624,-0.016561882570385933,-0.009776606224477291,-1.5993855777196586E-4,0.05932620167732239,0.007674915716052055,-0.014785334467887878,0.03813443332910538
